svm_type c_svc
kernel_type polynomial
degree 3
gamma 0.000925926
coef0 0
nr_class 5
total_sv 93
rho 0.834588 0.705012 0.904092 0.998831 -0.801251 0.262488 1.35505 0.478564 1.10893 0.821787
label 1 2 3 4 5
nr_sv 3 16 10 21 43
SV
2.752441757618141e-15 2.807465794773968e-15 3.549506266132592e-15 3.614107297732655e-15 1:137.22426 2:193.99644 3:-25.190796 4:200.12231 5:-45.598541 6:-64.333496 7:145.68097 8:-341.67441 9:-130.01086 10:187.87793 11:68.865234 12:-199.91672 13:-60.883575 14:15.196899 15:-184.76012 16:-373.20175 17:-209.72937 18:136.039 19:194.14002 20:-27.320801 21:198.83908 22:-48.979431 23:-72.882568 24:140.91785 25:-345.60886 26:-130.47237 27:189.99139 28:68.324707 29:-196.75056 30:-57.651215 31:3.264648 32:-183.20538 33:-369.62329 34:-210.25293 35:135.50954 36:196.43512 37:-28.956299 38:196.70949 39:-48.594482 40:-76.667847 41:139.49101 42:-336.76209 43:-135.22513 44:189.73881 45:68.882568 46:-199.65666 47:-58.342987 48:-3.763184 49:-189.92239 50:-364.40607 51:-212.50964 52:135.56619 53:199.93877 54:-26.03418 55:193.91496 56:-45.402252 57:-68.139648 58:134.24342 59:-335.11151 60:-136.17746 61:189.69488 62:66.840332 63:-199.61118 64:-59.779175 65:-8.065063 66:-191.09572 67:-358.50519 68:-219.68848 69:137.00024 70:199.07275 71:-24.434814 72:194.35669 73:-42.724731 74:-59.667358 75:132.60265 76:-330.55792 77:-135.28084 78:188.47463 79:65.391602 80:-196.82193 81:-64.470947 82:-18.052612 83:-193.64288 84:-356.0889 85:-229.49536 86:138.08375 87:196.35359 88:-21.858887 89:194.62767 90:-46.706207 91:-60.793091 92:129.72751 93:-334.88846 94:-135.01404 95:188.68308 96:63.716187 97:-196.59984 98:-65.034851 99:-26.278198 100:-189.54633 101:-351.75433 102:-241.61291 103:138.85967 104:195.23853 105:-22.130981 106:191.82909 107:-45.565765 108:-74.0979 109:129.42186 110:-332.30646 111:-134.92158 112:188.33752 113:61.80249 114:-198.75528 115:-62.557343 116:-46.324097 117:-214.21191 118:-332.07523 119:-272.4939 120:138.9975 121:194.34949 122:-20.060059 123:184.77524 124:-44.181396 125:-93.08252 126:127.29641 127:-320.1182 128:-134.11597 129:187.64516 130:61.504395 131:-199.17059 132:-56.857422 133:-53.182739 134:-230.98657 135:-293.92688 136:-317.20984 137:140.02264 138:192.31523 139:-19.72583 140:175.44495 141:-41.970032 142:-109.38428 143:131.17532 144:-298.08099 145:-132.57546 146:180.74762 147:66.418335 148:-200.04303 149:-41.338348 150:-70.076172 151:-242.75195 152:-276.59341 153:-357.47668 154:144.25824 155:183.95755 156:-2.557739 157:180.8772 158:-29.392029 159:-114.21301 160:130.93668 161:-275.47388 162:-130.0715 163:176.13637 164:75.848267 165:-198.92837 166:-32.139114 167:-73.163086 168:-252.15286 169:-233.94363 170:-388.77124 171:145.99115 172:179.8969 173:4.389526 174:183.06659 175:-22.149521 176:-116.92798 177:132.34872 178:-226.26111 179:-122.41567 180:168.16408 181:93.017334 182:-195.50113 183:-33.606293 184:-57.506104 185:-265.047 186:-175.12991 187:-412.21545 188:144.07367 189:176.49699 190:2.92749 191:176.04355 192:-8.927155 193:-145.5481 194:128.40555 195:-174.86661 196:-118.06497 197:161.56319 198:94.159546 199:-190.47353 200:-2.271866 201:-96.855957 202:-271.85013 203:-100.17366 204:-444.61133 205:143.83893 206:167.79692 207:-7.911987 208:178.69673 209:-7.809311 210:-203.65552 211:129.85434 212:-100.04933 213:-123.12775 214:174.25323 215:74.990845 216:-230.6857 217:57.879974 218:-161.63306 219:-277.72925 220:12.593323 221:-445.35303 222:140.23669 223:174.88074 224:-29.977417 225:187.78845 226:6.46936 227:-219.10718 228:137.50913 229:-17.818237 230:-124.10829 231:182.42204 232:82.865845 233:-222.29688 234:82.645836 235:-152.07104 236:-280.62866 237:124.91859 238:-443.8761 239:139.95187 240:185.38796 241:-39.902222 242:196.73791 243:40.711227 244:-239.39673 245:138.99558 246:69.249825 247:-129.27765 248:182.99779 249:71.937256 250:-252.24429 251:120.86252 252:-138.03735 253:-283.37347 254:223.44093 255:-452.16138 256:144.77994 257:183.34953 258:-28.241699 259:211.80429 260:127.28231 261:-247.32019 262:163.86943 263:208.23428 264:-130.37135 265:178.90393 266:66.926147 267:-269.99808 268:168.65891 269:-146.27197 270:-307.79077 271:300.51804 272:-418.47778 273:143.6772 274:179.70837 275:-23.327759 276:223.05821 277:178.13608 278:-250.0448 279:148.50821 280:307.28607 281:-134.89622 282:175.64088 283:68.277588 284:-260.22144 285:210.91022 286:-151.34521 287:-322.89725 288:404.00031 289:-390.12293 290:143.07895 291:182.29967 292:-1.949463 293:226.05939 294:242.30667 295:-203.06079 296:170.83789 297:425.95364 298:-136.28035 299:171.80508 300:87.729492 301:-237.51718 302:242.21008 303:-150.57104 304:-318.75458 305:479.62878 306:-376.98035 307:143.99713 308:187.08121 309:7.159424 310:220.50684 311:268.07092 312:-203.08545 313:184.07935 314:514.24731 315:-133.11052 316:170.97539 317:93.921997 318:-241.28429 319:287.00324 320:-134.99524 321:-326.63614 322:557.211 323:-335.65149 324:145.49791 325:185.53047 326:13.460083 327:211.67497 328:296.40591 329:-194.77441 330:192.45018 331:590.40314 332:-128.11337 333:166.02678 334:102.55396 335:-246.25452 336:316.14624 337:-93.201782 338:-318.64889 339:625.29144 340:-276.35168 341:148.04324 342:178.93581 343:23.673828 344:219.53989 345:315.53271 346:-169.19446 347:202.09204 348:639.65369 349:-129.09833 350:165.28256 351:102.46924 352:-252.46317 353:346.47192 354:-52.167114 355:-307.74112 356:675.33173 357:-217.41419 358:149.48337 359:175.90753 360:34.582275 361:235.06045 362:345.53705 363:-127.35889 364:217.49124 365:704.8999 366:-129.74863 367:166.51981 368:101.31262 369:-254.12076 370:357.34805 371:-10.891846 372:-291.87271 373:713.03802 374:-147.36743 375:150.42651 376:174.93561 377:39.96521 378:234.23932 379:364.88959 380:-107.43689 381:225.24719 382:728.35077 383:-128.19937 384:167.53429 385:101.74426 386:-255.1532 387:376.69934 388:21.535156 389:-279.00207 390:727.32593 391:-84.251831 392:151.38925 393:173.68263 394:42.075562 395:234.68631 396:392.29376 397:-90.975342 398:232.29794 399:749.03284 400:-127.18018 401:164.52042 402:105.66223 403:-254.02377 404:380.27155 405:38.489624 406:-268.87509 407:741.81634 408:-28.342041 409:151.31195 410:172.53964 411:41.725952 412:236.44412 413:396.99802 414:-66.278442 415:238.80917 416:756.1214 417:-127.02441 418:163.71529 419:109.63879 420:-247.39224 421:385.53937 422:50.126465 423:-254.75671 424:749.71631 425:21.052246 426:152.43674 427:173.62953 428:39.678589 429:233.06958 430:396.24109 431:-50.220337 432:241.32376 433:759.81732 434:-126.96519 435:158.63432 436:112.37402 437:-235.53317 438:378.759 439:67.680908 440:-245.89938 441:749.88281 442:64.465942 443:148.52934 444:174.37816 445:38.00293 446:227.80981 447:396.2738 448:-34.58374 449:240.85275 450:755.57214 451:-126.12979 452:157.08008 453:115.66419 454:-225.13637 455:372.95721 456:83.375 457:-234.93306 458:729.97925 459:97.305908 460:145.82999 461:176.1149 462:40.966431 463:234.72589 464:392.1012 465:-15.863525 466:242.98761 467:766.15552 468:-122.4679 469:151.10245 470:115.05188 471:-219.75702 472:370.88477 473:82.83374 474:-225.11038 475:734.31775 476:127.72205 477:142.04361 478:170.20566 479:43.828491 480:241.40082 481:393.69104 482:-9.085083 483:245.05173 484:752.23206 485:-122.65326 486:153.86436 487:115.24463 488:-217.95344 489:383.32422 490:91.480347 491:-222.79684 492:740.44043 493:148.84168 494:144.30499 495:170.81593 496:44.692139 497:249.96469 498:386.28198 499:-1.02417 500:248.73062 501:746.97546 502:-126.22595 503:146.24468 504:112.8584 505:-223.13693 506:373.5333 507:92.893799 508:-229.30655 509:714.19879 510:155.30444 511:143.13095 512:161.42569 513:59.269043 514:245.8846 515:381.87958 516:37.602295 517:253.1924 518:733.74719 519:-124.99854 520:135.35524 521:107.09167 522:-225.19563 523:368.16278 524:98.439941 525:-231.17217 526:707.87012 527:168.2793 528:141.00713 529:150.26344 530:54.334106 531:252.46707 532:371.24976 533:34.776733 534:257.16287 535:716.29486 536:-125.19211 537:134.30466 538:106.79016 539:-227.56902 540:368.57071 541:107.15686 542:-235.13789 543:716.32056 544:187.20081 545:139.30356 546:149.43268 547:58.132202 548:261.2998 549:363.55273 550:47.873169 551:262.75116 552:703.85449 553:-125.84183 554:134.27904 555:104.89014 556:-230.97417 557:375.44733 558:113.72205 559:-240.63596 560:726.034 561:202.8219 562:137.70398 563:150.58012 564:56.852539 565:267.64688 566:359.27625 567:50.113403 568:261.78635 569:674.47797 570:-126.89491 571:135.61899 572:105.98083 573:-232.58138 574:376.42096 575:114.7334 576:-244.61565 577:727.35449 578:209.18176 579:139.27443 580:151.60956 581:57.827026 582:271.20392 583:357.48453 584:53.843262 585:264.38043 586:648.16345 587:-122.37587 588:144.36389 589:112.25037 590:-230.58534 591:384.99841 592:123.43726 593:-243.07523 594:732.37756 595:220.12146 596:141.18129 597:160.25003 598:52.959595 599:275.50446 600:365.7359 601:49.976807 602:271.25324 603:668.26355 604:-122.80054 605:147.60904 606:113.40845 607:-232.39052 608:386.86237 609:125.07312 610:-245.84735 611:736.74536 612:223.62317 613:143.69705 614:156.58258 615:67.549561 616:281.07513 617:364.35638 618:68.397217 619:273.16437 620:692.03565 621:-127.41743 622:149.86415 623:116.17383 624:-238.70548 625:388.26733 626:131.78613 627:-251.18333 628:731.62537 629:221.10535 630:140.71751 631:165.45895 632:70.800781 633:280.06201 634:376.9751 635:79.872314 636:197.70512 637:383.46314 638:-129.26874 639:149.83749 640:118.12195 641:-229.7159 642:397.10113 643:147.94263 644:-251.75108 645:738.83026 646:230.24939 647:139.60658 648:169.48737 649:69.989624 650:280.96558 651:381.73389 652:82.63623 653:219.11791 654:499.93173 655:-129.39414 656:150.60162 657:119.15991 658:-232.40628 659:394.10434 660:147.64563 661:-255.03226 662:731.40796 663:226.74695 664:142.73675 665:168.21408 666:70.37793 667:279.75763 668:374.009 669:79.45752 670:269.35538 671:619.45325 672:-129.40581 673:149.8811 674:117.48779 675:-233.43137 676:390.52972 677:141.39563 678:-253.83655 679:725.61938 680:216.31445 681:142.55695 682:165.61398 683:72.547363 684:281.18024 685:373.5025 686:83.614014 687:269.81342 688:639.89191 689:-131.10773 690:143.93488 691:113.93726 692:-236.65326 693:382.99091 694:137.93774 695:-254.8362 696:726.92779 697:215.78491 698:141.9408 699:158.28125 700:75.419189 701:282.68164 702:368.71124 703:91.049072 704:269.87872 705:652.14587 706:-129.82143 707:140.22525 708:110.93518 709:-235.42697 710:379.15668 711:137.75073 712:-252.33176 713:730.95142 714:214.12769 715:142.12433 716:152.28073 717:73.719849 718:284.79651 719:364.8208 720:90.598022 721:273.1586 722:667.04663 723:-129.50827 724:139.01419 725:110.11633 726:-234.60585 727:376.05203 728:140.30456 729:-254.07947 730:720.65387 731:205.75122 732:140.7693 733:151.39621 734:74.068481 735:284.84143 736:365.43002 737:91.355591 738:275.24884 739:674.37347 740:-128.50734 741:137.12848 742:110.11206 743:-235.98636 744:365.47296 745:138.94287 746:-253.06384 747:723.77277 748:208.22827 749:140.1812 750:149.00082 751:74.773193 752:283.83017 753:365.85675 754:90.217529 755:275.89679 756:685.68903 757:-128.44192 758:135.23941 759:109.21326 760:-236.24677 761:365.52667 762:136.27649 763:-252.86668 764:718.11432 765:204.42188 766:139.64706 767:147.85403 768:73.160522 769:283.31952 770:363.64209 771:86.716064 772:275.80365 773:688.01654 774:-127.62925 775:134.4493 776:108.80701 777:-237.94669 778:364.44605 779:135.11853 780:-251.05182 781:711.74982 782:200.50842 783:141.35425 784:144.67386 785:72.754761 786:283.10193 787:365.88592 788:81.72998 789:268.40851 790:597.04657 791:-126.80597 792:138.19664 793:112.21631 794:-238.72928 795:368.73227 796:139.97107 797:-249.93337 798:712.5802 799:204.19897 800:140.74973 801:152.12698 802:69.408203 803:284.58826 804:365.06763 805:71.745605 806:270.75543 807:650.02411 808:-126.30998 809:140.20924 810:113.45764 811:-242.60745 812:369.87943 813:137.00232 814:-249.56422 815:724.69995 816:212.19702 817:139.3907 818:155.94577 819:68.823364 820:283.85892 821:370.01178 822:71.903931 823:270.74756 824:651.75623 825:-125.97363 826:138.08881 827:111.43591 828:-243.85411 829:365.81754 830:134.3634 831:-250.21878 832:715.90698 833:205.14624 834:139.12399 835:152.54987 836:68.766968 837:283.24109 838:365.29459 839:73.391113 840:268.6506 841:663.57727 842:-125.62702 843:137.42899 844:110.04089 845:-243.83005 846:365.16016 847:134.62524 848:-249.9718 849:709.17578 850:202.99292 851:138.32428 852:151.08069 853:69.418335 854:282.32837 855:357.59222 856:70.708862 857:268.50623 858:669.22644 859:-124.97043 860:139.39804 861:110.87744 862:-244.25018 863:372.6319 864:133.77136 865:-248.78641 866:717.81537 867:207.18628 868:138.2197 869:153.83389 870:67.62915 871:282.25522 872:362.52472 873:71.93811 874:264.04251 875:666.00067 876:-124.90532 877:138.72382 878:110.20264 879:-245.4688 880:371.96338 881:137.44812 882:-248.48215 883:721.3056 884:210.37207 885:136.87453 886:153.57983 887:68.329102 888:281.5802 889:361.42935 890:72.073486 891:271.58887 892:678.65509 893:-125.63403 894:139.26445 895:110.38342 896:-241.96918 897:374.13226 898:141.95642 899:-247.22131 900:715.98151 901:205.2279 902:137.96848 903:154.01733 904:67.870239 905:282.51672 906:364.9812 907:71.638428 908:260.76593 909:663.6651 910:-125.00285 911:140.72949 912:111.53442 913:-240.98758 914:374.02652 915:144.24499 916:-247.32108 917:721.80115 918:207.80115 919:138.62705 920:155.18784 921:67.599854 922:282.32535 923:366.79007 924:71.239258 925:259.40167 926:671.51013 927:-123.54311 928:144.6557 929:116.73852 930:-238.71848 931:372.87891 932:159.04138 933:-246.91815 934:732.29504 935:217.38159 936:139.12888 937:160.09113 938:69.498779 939:283.21866 940:370.62811 941:70.387695 942:269.08578 943:691.47839 944:-123.30829 945:143.58823 946:115.26587 947:-239.38144 948:373.56457 949:154.44421 950:-245.13757 951:724.22119 952:205.34582 953:140.52136 954:157.17868 955:68.244873 956:283.17136 957:372.26553 958:64.983154 959:262.02045 960:685.35596 961:-122.6218 962:146.67958 963:116.83679 964:-240.18692 965:376.07501 966:154.66907 967:-246.1738 968:732.07117 969:213.06799 970:142.02945 971:158.97853 972:68.958618 973:284.60443 974:372.7923 975:64.571777 976:273.21912 977:696.29858 978:-121.58703 979:145.64307 980:115.39002 981:-240.03983 982:374.67029 983:152.58874 984:-245.54388 985:731.05896 986:212.3429 987:143.81619 988:156.91785 989:63.276245 990:276.31729 991:354.42908 992:53.485596 993:269.13138 994:698.8269 995:-117.59445 996:151.01416 997:118.62012 998:-236.3623 999:380.61645 1000:154.87805 1001:-238.75491 1002:733.45154 1003:210.13184 1004:143.89896 1005:165.38638 1006:51.428711 1007:281.935 1008:372.3064 1009:47.739624 1010:273.70544 1011:699.41394 1012:-118.86714 1013:149.726 1014:117.80212 1015:-217.75919 1016:369.94659 1017:164.17627 1018:-239.82648 1019:735.3761 1020:211.68543 1021:142.23956 1022:164.2524 1023:56.689331 1024:284.43985 1025:376.21146 1026:57.13501 1027:273.27771 1028:707.62927 1029:-117.91574 1030:148.46286 1031:117.13989 1032:-230.79662 1033:365.97363 1034:172.9585 1035:-244.76855 1036:740.66443 1037:214.91931 1038:140.88242 1039:161.54843 1040:61.00293 1041:285.28784 1042:374.62439 1043:58.906982 1044:270.88968 1045:702.9198 1046:-117.86089 1047:146.1306 1048:115.76977 1049:-235.00137 1050:366.8493 1051:161.6748 1052:-243.05652 1053:735.65991 1054:209.05896 1055:139.65482 1056:159.05833 1057:62.007812 1058:284.91559 1059:375.15057 1060:60.39563 1061:269.6318 1062:701.50366 1063:-115.53464 1064:146.29627 1065:114.65185 1066:-237.3378 1067:367.9873 1068:155.54797 1069:-240.83403 1070:736.2514 1071:206.0979 1072:140.21158 1073:156.55734 1074:61.044434 1075:285.62863 1076:375.46899 1077:56.461792 1078:270.25711 1079:711.92767 1080:175.03455 
1.89407634035356e-15 1.922718116240708e-15 2.217304755964397e-15 2.154961896189324e-15 1:158.8671 2:213.93749 3:49.814087 4:158.86633 5:-75.662277 6:49.814087 7:158.92853 8:-365.26178 9:-150.88406 10:204.54703 11:94.255005 12:-150.8833 13:-85.05275 14:94.255005 15:-150.95798 16:-374.65216 17:94.05957 18:158.46515 19:214.27667 20:49.636841 21:158.46439 22:-75.323074 23:49.636841 24:158.52066 25:-364.92248 26:-150.88179 27:206.06265 28:90.883179 29:-150.88103 30:-83.537094 31:90.883179 32:-150.94864 33:-373.13654 34:90.707275 35:158.13469 36:215.7391 37:44.011108 38:158.13393 39:-73.860641 40:44.011108 41:158.18491 42:-363.46008 43:-151.25645 44:205.80721 45:90.852173 46:-151.25569 47:-83.792572 48:90.852173 49:-151.31696 50:-373.39194 51:90.693848 52:157.78917 53:215.94545 54:44.265503 55:157.78841 56:-73.654327 57:44.265503 58:157.83467 59:-363.25375 60:-151.086 61:205.73039 62:91.305176 63:-151.08524 64:-83.86937 65:91.305176 66:-151.14081 67:-373.46881 68:91.16272 69:158.47235 70:214.64162 71:48.001221 72:158.47159 73:-74.958145 74:48.001221 75:158.51367 76:-364.55756 77:-150.98743 78:205.55164 79:91.873413 80:-150.98666 81:-84.048111 82:91.873413 83:-151.03717 84:-373.64752 85:91.745117 86:158.54886 87:214.49643 88:48.404419 89:158.5481 90:-75.103348 91:48.404419 92:158.5864 93:-364.70276 94:-150.4122 95:207.19722 96:89.072021 97:-150.41144 98:-82.402542 99:89.072021 100:-150.45741 101:-372.00195 102:88.956543 103:159.11536 104:214.75661 105:45.280029 106:159.11459 107:-74.843155 108:45.280029 109:159.14954 110:-364.44257 111:-149.99146 112:206.35707 113:91.696167 114:-149.99069 115:-83.242691 116:91.696167 117:-150.03256 118:-372.8421 119:91.592285 120:159.33968 121:214.30754 122:46.605103 123:159.33891 124:-75.292221 125:46.605103 126:159.37085 127:-364.8916 128:-150.09161 129:205.56865 130:93.29126 131:-150.09085 132:-84.031113 133:93.29126 134:-150.12903 135:-373.63049 136:93.197754 137:159.0885 138:214.33751 139:47.32373 140:159.08774 141:-75.262253 142:47.32373 143:159.11694 144:-364.86163 145:-150.7391 146:205.70601 147:91.935425 148:-150.73834 149:-83.893753 150:91.935425 151:-150.77319 152:-373.49316 153:91.851318 154:158.70851 155:214.51057 156:47.814331 157:158.70775 158:-75.089188 159:47.814331 160:158.73453 161:-364.6886 162:-151.32358 163:206.33786 164:89.525635 165:-151.32281 166:-83.261902 167:89.525635 168:-151.35467 169:-372.8613 170:89.449951 171:158.24168 172:215.19742 173:46.245361 174:158.24092 175:-74.402344 176:46.245361 177:158.26555 178:-364.00174 179:-150.99814 180:206.61313 181:89.441772 182:-150.99738 183:-82.986633 184:89.441772 185:-151.0265 186:-372.58606 187:89.373657 188:158.32938 189:215.50095 190:44.502075 191:158.32861 192:-74.098816 193:44.502075 194:158.35132 195:-363.69824 196:-151.10086 197:207.09311 198:88.149536 199:-151.1001 200:-82.506638 201:88.149536 202:-151.12676 203:-372.10614 204:88.088257 205:158.50758 206:215.25699 207:45.046265 208:158.50682 209:-74.342758 210:45.046265 211:158.52776 212:-363.9422 213:-152.86646 214:207.05499 215:85.139526 216:-152.86569 217:-82.544769 218:85.139526 219:-152.89011 220:-372.14423 221:85.084351 222:157.18188 223:216.12347 224:45.532593 225:157.18112 226:-73.476288 227:45.532593 228:157.20047 229:-363.07568 230:-151.91611 231:208.67003 232:82.860352 233:-151.91534 234:-80.929733 235:82.860352 236:-151.93782 237:-370.52911 238:82.810669 239:157.80258 240:216.66365 241:40.53125 242:157.80182 243:-72.936111 244:40.53125 245:157.81973 246:-362.53552 247:-151.52583 248:208.3044 249:84.485229 250:-151.52507 251:-81.295349 252:84.485229 253:-151.54584 254:-370.89471 255:84.440552 256:158.40044 257:215.63728 258:43.571167 259:158.39967 260:-73.962463 261:43.571167 262:158.41632 263:-363.56183 264:-150.78305 265:209.41455 266:83.057739 267:-150.78229 268:-80.185211 269:83.057739 270:-150.80154 271:-369.78461 272:83.017456 273:158.90692 274:215.9086 275:40.257446 276:158.90616 277:-73.691162 278:40.257446 279:158.92165 280:-363.29059 281:-152.09906 282:209.13611 283:81.345093 284:-152.0983 285:-80.463654 286:81.345093 287:-152.11618 288:-370.06308 289:81.308838 290:157.82163 291:216.67261 292:40.427856 293:157.82086 294:-72.927155 295:40.427856 296:157.83533 297:-362.52658 298:-151.96426 299:209.03574 300:81.855591 301:-151.9635 302:-80.564026 303:81.855591 304:-151.9801 305:-370.16342 306:81.822998 307:157.78976 308:216.82431 309:39.737427 310:157.789 311:-72.775452 312:39.737427 313:157.80254 314:-362.37485 315:-151.95508 316:209.78661 317:79.928101 318:-151.95432 319:-79.813156 320:79.928101 321:-151.96974 322:-369.4126 323:79.898804 324:158.07759 325:216.61357 326:39.740845 327:158.07683 328:-72.986191 329:39.740845 330:158.08954 331:-362.58557 332:-153.33383 333:208.31673 334:81.124878 335:-153.33307 336:-81.28302 337:81.124878 338:-153.34747 339:-370.88238 340:81.098511 341:156.96481 342:216.72453 343:43.369751 344:156.96405 345:-72.875244 346:43.369751 347:156.97598 348:-362.47467 349:-152.97656 350:209.49228 351:78.736694 352:-152.9758 353:-80.107468 354:78.736694 355:-152.98935 356:-369.70691 357:78.712891 358:157.21121 359:217.20682 360:39.927368 361:157.21045 362:-72.392929 363:39.927368 364:157.22174 365:-361.99231 366:-152.70982 367:208.53139 368:81.731201 369:-152.70906 370:-81.068359 371:81.731201 372:-152.72177 373:-370.66779 374:81.709839 375:158.00645 376:215.15312 377:47.209717 378:158.00569 379:-74.446655 380:47.209717 381:158.01634 382:-364.04608 383:-156.05179 384:206.39662 385:80.842651 386:-156.05103 387:-83.203156 388:80.842651 389:-156.06296 390:-372.80258 391:80.823364 392:154.84979 393:217.01854 394:49.109985 395:154.84903 396:-72.581207 397:49.109985 398:154.85915 399:-362.18063 400:-155.33099 401:205.98463 402:83.25061 403:-155.33023 404:-83.615143 405:83.25061 406:-155.34152 407:-373.21451 408:83.233276 409:155.72391 410:215.55486 411:52.671265 412:155.72314 413:-74.044891 414:52.671265 415:155.73279 416:-363.64432 417:-153.84883 418:206.36934 419:85.036011 420:-153.84807 421:-83.230408 422:85.036011 423:-153.85872 424:-372.82977 425:85.020386 426:157.11726 427:214.42665 428:53.144165 429:157.1165 430:-75.173096 431:53.144165 432:157.12569 433:-364.77252 434:-153.15227 435:206.25392 436:86.558472 437:-186.01492 438:-152.82019 439:-4.370361 440:-197.56714 441:-441.89661 442:-66.449097 443:157.98868 444:213.02702 445:56.105103 446:170.32593 447:-150.15271 448:-28.591309 449:177.77768 450:-433.77112 451:-152.97119 452:205.36298 453:88.963623 454:-197.51691 455:-125.25375 456:-77.344727 457:-213.28766 458:-405.02042 459:-192.53406 460:158.18565 461:212.18607 462:58.67749 463:175.38608 464:-116.6911 465:-92.131348 466:173.6664 467:-398.51773 468:-153.67331 469:204.6454 470:89.403076 471:-203.4016 472:-84.19516 473:-132.49011 474:-218.23091 475:-343.43973 476:-293.34302 477:157.86559 478:211.09746 479:63.281006 480:173.7166 481:-76.709991 482:-137.14612 483:158.70572 484:-336.52866 485:-153.78136 486:204.58 487:89.369385 488:-204.82593 489:-45.947266 490:-177.98877 491:-217.1178 492:-277.39313 493:-377.60559 494:158.06149 495:209.84663 496:66.854736 497:168.85886 498:-39.241821 499:-170.29248 500:144.38699 501:-263.91309 502:-154.65358 503:204.03375 504:89.114868 505:-205.76846 506:-1.70787 507:-209.93298 508:-216.17021 509:-200.67752 510:-443.93335 511:157.37398 512:209.54681 513:69.372681 514:164.58159 515:-1.517471 516:-201.7533 517:132.56335 518:-182.87021 519:-155.20488 520:202.37852 521:91.886719 522:-211.0824 523:42.186661 524:-228.29627 525:-217.30902 526:-110.66658 527:-489.91968 528:156.56232 529:210.24828 530:69.084961 531:162.74643 532:42.003128 533:-230.83679 534:125.73328 535:-95.239792 536:-155.8378 537:201.84267 538:91.992432 539:-182.13399 540:189.97142 541:-196.1665 542:-198.90807 543:137.02628 544:-480.39075 545:156.19559 546:209.20293 547:72.976807 548:171.87826 549:192.49121 550:-215.7146 551:109.8727 552:152.58581 553:-156.07785 554:199.66281 555:96.236694 556:-254.21399 557:301.32696 558:-290.96729 559:-221.03049 560:282.34375 561:-578.66992 562:155.93668 563:207.86688 564:77.21521 565:177.9953 566:190.78207 567:-256.35571 568:159.37997 569:240.8186 570:-156.08667 571:197.77335 572:100.05444 573:-246.2043 574:165.86136 575:-173.31055 576:-230.76936 577:106.10251 578:-456.25684 579:155.63568 580:207.96591 581:77.562744 582:178.04883 583:189.31753 584:-255.55542 585:167.01471 586:281.47931 587:-156.285 588:197.07806 589:101.1156 590:-250.18481 591:84.09816 592:-148.45666 593:-248.56335 594:-12.131668 595:-421.59607 596:155.18793 597:208.85172 598:76.071167 599:176.82712 600:186.86379 601:-252.84985 602:174.04813 603:325.90939 604:-157.27014 605:195.14314 606:103.31299 607:-245.44812 608:23.589874 609:-112.70105 610:-254.28586 611:-104.52702 612:-372.26977 613:154.22223 614:208.38347 615:79.247803 616:177.41716 617:184.33157 618:-248.28052 619:177.64516 620:373.34491 621:-156.88768 622:193.9478 623:106.10925 624:-235.09026 625:-17.991409 626:-75.092529 627:-251.57381 628:-173.53532 629:-318.81836 630:154.11616 631:209.1591 632:77.390991 633:169.85173 634:103.75966 635:-191.88818 636:167.14868 637:347.84964 638:-155.45961 639:194.48936 640:107.20801 641:-222.47742 642:-44.527344 643:-41.948242 644:-244.31 645:-223.36841 646:-268.67969 647:154.80557 648:210.62807 649:71.82251 650:258.3085 651:184.61676 652:-48.157227 653:137.23636 654:361.47345 655:-154.91063 656:192.23785 657:111.95606 658:-300.61417 659:38.787643 660:-210.56006 661:-337.12271 662:-8.53775 663:-479.02466 664:154.05345 665:212.35391 666:68.266113 667:290.70139 668:239.0318 669:-9.707886 670:141.88754 671:410.71799 672:-154.89279 673:192.87518 674:110.88708 675:-270.41525 676:201.53584 677:-150.13415 678:-312.30795 679:264.76865 680:-427.64111 681:153.7561 682:213.5416 683:65.17395 684:281.30115 685:278.87897 686:4.207642 687:157.37863 688:474.15253 689:-154.95944 690:193.24705 691:110.14709 692:-269.24912 693:300.12848 694:-149.74329 695:-303.29865 696:449.94836 697:-399.35376 698:154.05386 699:212.92012 700:66.495972 701:319.62601 702:351.72156 703:-15.659424 704:225.22043 705:583.74646 706:-155.61162 707:193.98817 708:107.90161 709:-253.73833 710:363.65497 711:-107.10718 712:-278.25986 713:570.63446 714:-314.17822 715:153.64705 716:213.39922 717:65.897949 718:319.79117 719:411.02771 720:-16.944092 721:254.82989 722:671.72382 723:-156.20496 724:195.26234 725:104.69604 726:-250.81824 727:428.20648 728:-88.093994 729:-264.134 730:678.3429 731:-254.38904 732:153.78671 733:212.77159 734:67.576416 735:297.25848 736:428.63428 737:-1.410156 738:256.42871 739:703.18579 740:-156.30801 741:197.50566 742:100.23645 743:-236.46973 744:449.36749 745:-44.905396 746:-239.4884 747:723.62744 748:-169.95422 749:154.31006 750:212.42226 751:67.477905 752:245.97589 753:507.55878 754:39.192993 755:235.40146 756:801.63995 757:-155.3882 758:198.98122 759:98.739502 760:-207.68794 761:527.63776 762:69.606201 763:-168.41287 764:832.8067 765:72.214966 766:155.1183 767:212.78008 768:64.432129 769:251.64983 770:552.62006 771:62.26709 772:253.25798 773:854.6004 774:-155.40584 775:199.30705 776:98.056274 777:-206.97093 778:498.12952 779:87.473755 780:-177.03229 781:804.7066 782:102.28198 783:155.30867 784:212.35579 785:65.372681 786:251.80292 787:566.73914 788:83.221191 789:259.53451 790:878.51984 791:-156.17929 792:198.38115 793:98.700317 794:-211.78505 795:525.86853 796:95.41272 797:-163.47092 798:834.91919 799:122.04175 800:154.7688 801:211.77086 802:68.473267 803:258.89145 804:558.82971 805:98.580811 806:258.26642 807:876.61792 808:-156.48828 809:199.75713 810:95.378296 811:-210.2168 812:569.68048 813:112.33728 814:-162.28171 815:884.263 816:172.33838 817:155.00371 818:210.97646 819:70.365601 820:259.85025 821:554.97723 822:113.54956 823:256.93433 824:867.68762 825:-157.60696 826:198.90593 827:95.318848 828:-201.49889 829:583.34827 830:127.42236 831:-162.92674 832:906.854 833:208.20117 834:153.90855 835:211.49651 836:71.208252 837:263.10754 838:560.27387 839:124.8407 840:257.57812 841:870.66644 842:-157.81439 843:198.29666 844:96.240845 845:-211.37271 846:584.0575 847:133.46387 848:-156.44751 849:900.96918 850:219.42908 851:153.75653 852:211.0235 853:72.9198 854:264.38757 855:561.95007 856:132.30408 857:247.56525 858:864.63831 859:-158.56874 860:197.16602 861:97.317139 862:-208.68701 863:584.1853 864:144.48401 865:-158.38672 866:902.38 867:230.56848 868:153.01517 869:210.9165 870:74.764648 871:266.3887 872:569.37012 873:142.56396 874:243.27573 875:866.04187 876:-157.55281 877:198.07194 878:97.127686 879:-209.55676 880:582.59351 881:147.47058 882:-160.63983 883:901.64441 884:235.28125 885:154.20508 886:209.67131 887:75.815186 888:266.35013 889:553.21881 890:149.07483 891:242.82706 892:845.96094 893:-156.28644 894:199.2153 895:96.834595 896:-212.13251 897:585.84802 898:144.2832 899:-155.28827 900:902.35596 901:236.49023 902:155.4566 903:209.2135 904:74.512573 905:271.95807 906:555.01917 907:150.74854 908:246.45737 909:844.47217 910:-156.8475 911:198.82088 912:96.73877 913:-213.65448 914:586.21423 915:146.20093 916:-151.17856 917:901.33649 918:240.52966 919:155.02331 920:208.88646 921:76.312012 922:271.25363 923:555.23145 924:155.83655 925:247.16946 926:843.81732 927:-157.22015 928:198.65744 929:96.470337 930:-218.10877 931:582.27747 932:145.3894 933:-154.26955 934:898.96948 935:241.95789 936:154.6806 937:209.0181 938:76.647827 939:272.27988 940:549.4588 941:156.21143 942:255.33048 943:837.44153 944:-157.4348 945:198.35545 946:96.741211 947:-220.62923 948:583.90784 949:144.41064 950:-156.97858 951:899.86273 952:242.40942 953:154.50285 954:208.81294 955:77.559814 956:271.20892 957:551.82471 958:157.18347 959:250.36299 960:840.27081 961:-157.11999 962:199.23022 963:95.446289 964:-219.0898 965:585.33246 966:143.84033 967:-155.23215 968:900.40332 969:245.42334 970:154.9256 971:208.53265 972:77.469971 973:271.09323 974:550.63037 975:155.91077 976:251.20831 977:839.39569 978:-157.40176 979:198.62613 980:96.238159 981:-221.91238 982:582.03229 983:141.82288 984:-168.4948 985:899.16058 986:245.70349 987:154.59482 988:208.65442 989:77.802612 990:270.80624 991:547.95447 992:156.53455 993:250.26981 994:839.06049 995:-158.06723 996:198.14551 997:96.136719 998:-220.53328 999:586.31592 1000:144.3125 1001:-163.05785 1002:904.11572 1003:244.93909 1004:154.05968 1005:208.18674 1006:80.081787 1007:268.83807 1008:552.30884 1009:160.17798 1010:246.48027 1011:842.90234 1012:-158.43665 1013:197.17226 1014:97.516724 1015:-221.47058 1016:585.75989 1017:145.2522 1018:-164.14325 1019:902.16028 1020:246.85437 1021:153.79265 1022:207.04811 1023:83.471802 1024:267.56628 1025:549.06061 1026:160.33777 1027:252.19101 1028:841.69482 1029:-158.69635 1030:196.85869 1031:97.730103 1032:-222.52194 1033:585.64618 1034:144.67212 1035:-165.33844 1036:903.11096 1037:243.26819 1038:153.64172 1039:206.16789 1040:85.895874 1041:266.48126 1042:549.57861 1043:161.4751 1044:252.33707 1045:842.72034 1046:-157.71118 1047:197.26785 1048:98.49646 1049:-216.49957 1050:578.88648 1051:145.62219 1052:-161.45326 1053:898.62482 1054:238.28613 1055:154.48392 1056:206.57425 1057:83.371704 1058:268.00085 1059:545.58057 1060:159.0094 1061:256.82678 1062:839.54309 1063:-156.39209 1064:199.301 1065:96.484619 1066:-219.36928 1067:581.6665 1068:141.93311 1069:-160.39012 1070:900.15643 1071:231.63782 1072:155.88976 1073:206.1355 1074:81.824463 1075:270.08032 1076:549.54071 1077:159.46973 1078:257.72693 1079:842.23102 1080:311.01892 
6.490402670871595e-15 6.575061689513154e-15 6.862176280154581e-15 6.542519113407293e-15 1:151.68588 2:219.28769 3:48.917847 4:215.83527 5:-59.46817 6:-54.986328 7:188.9848 8:-305.88602 9:-156.88696 10:199.55151 11:95.158081 12:-208.87567 13:-72.597137 14:-28.754395 15:-210.28119 16:-314.47726 17:-236.03247 18:151.82086 19:219.10034 20:49.345337 21:214.60788 22:-49.578918 23:-49.104858 24:187.12091 25:-293.99612 26:-157.05718 27:198.98262 28:96.064331 29:-206.55202 30:-75.562714 31:-31.830078 32:-207.69251 33:-316.82779 34:-239.84265 35:151.518 36:219.23718 37:49.667847 38:213.49292 39:-55.668915 40:-54.894043 41:187.5325 42:-300.12381 43:-157.44966 44:199.19611 45:94.973389 46:-203.78694 47:-72.91095 48:-33.192505 49:-208.92294 50:-315.07898 51:-240.08972 52:151.33096 53:219.31285 54:49.903564 55:213.17474 56:-54.526184 57:-55.940918 58:185.71591 59:-298.9826 60:-157.64572 61:199.11525 62:94.817627 63:-205.48557 64:-73.446106 65:-32.17749 66:-206.10751 67:-314.61481 68:-240.29944 69:151.05167 70:219.62898 71:49.356689 72:215.45163 73:-51.505066 74:-54.648682 75:186.13083 76:-295.31464 77:-157.74889 78:199.48691 79:93.858154 80:-203.83481 81:-72.21051 82:-32.583008 83:-207.453 84:-316.73727 85:-236.71411 86:151.49789 87:218.77286 88:51.730469 89:213.85324 90:-52.318573 91:-54.454956 92:185.09729 93:-297.39426 94:-158.60785 95:198.91165 96:93.632446 97:-204.87657 98:-71.598053 99:-30.978271 100:-208.20038 101:-317.56628 102:-233.3833 103:150.7413 104:219.07179 105:52.669556 106:212.31277 107:-52.956238 108:-53.732056 109:184.44092 110:-298.73377 111:-159.18118 112:200.12907 113:89.987183 114:-207.20935 115:-73.624405 116:-30.550171 117:-205.53448 118:-320.2077 119:-232.22095 120:150.22682 121:220.17806 122:49.412964 123:212.12831 124:-51.798752 125:-52.589844 126:182.30492 127:-298.68561 128:-160.01993 129:199.68103 130:89.5 131:-207.34979 132:-73.298691 133:-32.24585 134:-205.9209 135:-322.45618 136:-230.73157 137:149.61258 138:220.24795 139:50.952881 140:210.19595 141:-53.176315 142:-52.752319 143:178.4371 144:-300.62347 145:-161.28836 146:200.33936 147:85.661255 148:-206.32007 149:-70.50238 150:-31.676636 151:-200.8316 152:-320.34534 153:-229.22778 154:148.33101 155:221.86993 156:47.533569 157:210.3391 158:-51.998474 159:-52.10144 160:178.09999 161:-299.98877 162:-161.85037 163:200.76706 164:83.58252 165:-205.0143 166:-71.291168 167:-32.747437 168:-196.03732 169:-323.17352 170:-227.56043 171:148.16563 172:221.77023 173:48.518799 174:211.49809 175:-51.987274 176:-51.420654 177:176.81416 178:-301.58887 179:-161.97943 180:200.76662 181:83.335327 182:-201.94305 183:-76.212555 184:-36.133179 185:-195.65431 186:-331.10867 187:-227.09106 188:147.89922 189:222.20699 190:47.322144 191:211.65733 192:-58.369354 193:-51.270874 194:178.6248 195:-308.48337 196:-162.03577 197:200.2792 198:84.391602 199:-202.12253 200:-73.951843 201:-32.507446 202:-193.55917 203:-327.94669 204:-224.5813 205:147.91164 206:221.8262 207:49.037842 208:207.99269 209:-59.445099 210:-49.59668 211:179.61406 212:-311.63467 213:-161.22487 214:202.29627 215:81.054932 216:-202.02579 217:-75.047333 218:-35.849487 219:-192.94696 220:-330.26755 221:-226.26965 222:148.61296 223:222.41797 224:43.951416 225:207.7263 226:-60.911285 227:-51.000122 228:182.91426 229:-315.20444 230:-160.82791 231:202.30927 232:81.820312 233:-201.69952 234:-72.794678 235:-33.930298 236:-192.31393 237:-329.49298 238:-222.33777 239:148.9178 240:222.23909 241:43.8479 242:208.84258 243:-60.368164 244:-47.384888 245:182.08995 246:-316.25018 247:-160.76578 248:203.2816 249:79.495361 250:-199.72572 251:-73.950623 252:-35.86377 253:-193.61783 254:-332.16687 255:-222.31848 256:148.89327 257:222.86204 258:40.644531 259:210.85841 260:-63.154663 261:-48.260498 262:183.4026 263:-320.65845 264:-160.32152 265:204.08971 266:78.317749 267:-198.37904 268:-72.472321 269:-35.788086 270:-194.04022 271:-332.66037 272:-219.53198 273:149.53198 274:222.47179 275:40.445923 276:211.37607 277:-63.592438 278:-48.303467 279:185.15491 280:-324.06894 281:-160.73154 282:203.22507 283:79.71228 284:-201.06241 285:-74.669434 286:-33.491699 287:-192.4147 288:-332.68414 289:-220.12012 290:148.64133 291:223.33925 292:38.917847 293:211.47705 294:-64.793335 295:-46.294434 296:185.74219 297:-325.82269 298:-161.32765 299:202.65861 300:79.950562 301:-200.14192 302:-77.40062 303:-34.937866 304:-191.11194 305:-336.60358 306:-219.90186 307:148.22183 308:223.28702 309:40.774536 310:212.56104 311:-67.087967 312:-46.304321 313:189.9935 314:-330.43079 315:-161.37436 316:202.64113 317:79.901978 318:-201.02972 319:-76.015671 320:-34.011841 321:-192.87854 322:-334.91553 323:-219.44238 324:148.10916 325:223.44885 326:40.297241 327:213.11328 328:-64.813461 329:-44.596924 330:189.82117 331:-328.43903 332:-161.69226 333:202.32729 334:80.054199 335:-201.66667 336:-81.244797 337:-38.467529 338:-194.46265 339:-340.93182 340:-222.83313 341:147.614 342:223.91873 343:39.497559 344:210.2509 345:-66.333878 346:-47.489746 347:187.57253 348:-330.93738 349:-161.27322 350:203.55754 351:77.739624 352:-203.30856 353:-73.318146 354:-33.117188 355:-192.74506 356:-331.28952 357:-219.71106 358:147.85773 359:224.42345 360:35.503784 361:208.7164 362:-61.258087 363:-45.426514 364:189.48212 365:-326.64737 366:-161.16292 367:204.36353 368:75.816162 369:-203.10681 370:-74.188751 371:-37.960815 372:-193.50836 373:-331.41186 374:-225.64087 375:147.13629 376:225.92151 377:28.223145 378:209.43402 379:-63.760986 380:-50.053223 381:190.02487 382:-329.00452 383:-161.11 384:203.19199 385:79.021729 386:-198.17743 387:-78.944122 388:-44.6521 389:-193.19797 390:-335.96555 391:-232.78223 392:147.17726 393:225.44553 394:31.641113 395:210.7198 396:-69.200195 397:-54.762573 398:188.30125 399:-334.55814 400:-160.17911 401:204.61426 402:77.225464 403:-197.4066 404:-70.207916 405:-43.677368 406:-197.83682 407:-322.22092 408:-238.50623 409:147.85521 410:225.52795 411:27.644409 412:210.64613 413:-63.121338 414:-56.658081 415:189.79384 416:-328.46274 417:-160.20685 418:204.66623 419:77.03772 420:-197.1633 421:-64.133057 422:-53.540649 423:-209.43872 424:-315.36694 425:-248.97424 426:147.6695 427:225.78214 428:26.562866 429:206.42517 430:-59.172058 431:-64.351807 432:188.21973 433:-325.21033 434:-158.58102 435:203.84842 436:82.372192 437:-198.38702 438:-62.999908 439:-66.889648 440:-216.95203 441:-311.68893 442:-265.08569 443:148.81485 444:224.72792 445:28.964478 446:206.98752 447:-57.982574 448:-72.313232 449:191.3364 450:-323.12137 451:-157.5368 452:202.99733 453:86.382568 454:-199.16272 455:-59.265457 456:-84.65918 457:-229.11618 458:-301.26721 459:-289.58105 460:149.69469 461:223.73407 462:31.974854 463:209.04835 464:-53.653915 465:-89.251099 466:194.84853 467:-317.2287 468:-157.64467 469:202.5201 470:87.309814 471:-206.16124 472:-41.689667 473:-95.799194 474:-248.78336 475:-274.64432 476:-308.77588 477:149.56526 478:223.68355 479:32.943359 480:206.1563 481:-41.720245 482:-104.7406 483:201.84892 484:-302.75021 485:-155.85028 486:202.28122 487:90.998047 488:-217.85187 489:-21.5336 490:-115.27075 491:-268.39877 492:-240.55887 493:-340.88818 494:151.35867 495:221.98296 496:36.081543 497:205.91882 498:-29.742523 499:-129.28845 500:212.63492 501:-282.67636 502:-155.91721 503:200.9583 504:93.765991 505:-242.58592 506:-11.226944 507:-160.80859 508:-298.54031 509:-220.78368 510:-393.89123 511:151.90726 512:220.49147 513:42.358765 514:208.14429 515:-15.917343 516:-152.89661 517:227.07822 518:-249.66588 519:-155.77472 520:201.07698 521:93.759888 522:-258.19052 523:21.575104 524:-188.87732 525:-332.36127 526:-164.15666 527:-441.7251 528:152.60577 529:219.42027 530:45.331909 531:220.68396 532:-7.69902 533:-201.5697 534:250.51105 535:-215.36858 536:-156.44153 537:200.61371 538:93.633057 539:-286.67523 540:67.093491 541:-203.47974 542:-374.41278 543:-72.87738 544:-479.14941 545:152.94975 546:217.76531 547:51.688721 548:234.61153 549:25.470215 550:-223.6416 551:266.19092 552:-124.42664 553:-156.11816 554:199.96458 555:95.546387 556:-314.0748 557:108.65572 558:-206.74268 559:-407.82669 560:48.046234 561:-502.9751 562:153.64831 563:216.1963 564:56.029297 565:260.95343 566:69.393143 567:-233.05188 568:289.52298 569:-7.644974 570:-156.27341 571:197.65315 572:99.990112 573:-328.74225 574:156.21892 575:-173.60791 576:-399.13455 577:158.87103 578:-473.43213 579:153.58334 580:214.73485 581:61.541626 582:284.05908 583:136.09534 584:-206.83838 585:300.23184 586:112.79954 587:-156.10437 588:196.77846 589:101.96521 590:-335.26245 591:213.08432 592:-162.38953 593:-407.29288 594:247.32675 595:-450.43274 596:154.18164 597:212.77446 598:66.651489 599:359.61713 600:189.47273 601:-32.504761 602:287.5849 603:190.25865 604:-156.04807 605:195.37625 606:104.70581 607:-329.00494 608:249.45754 609:-160.23645 610:-419.52597 611:317.66962 612:-431.21094 613:154.67642 614:210.32349 615:72.976074 616:320.98193 617:236.29964 618:-32.042725 619:307.04645 620:254.42007 621:-156.70657 622:197.52954 623:99.560181 624:-333.26279 625:312.68088 626:-142.57202 627:-470.1413 628:432.50012 629:-372.1344 630:154.79933 631:209.46854 632:75.14856 633:294.23529 634:286.15851 635:-70.344849 636:342.71796 637:367.12302 638:-156.39416 639:196.73114 640:101.61853 641:-346.42371 642:365.26575 643:-125.54981 644:-486.37387 645:528.09741 646:-327.25671 647:154.64966 648:210.47336 649:72.616333 650:294.12326 651:350.01916 652:-144.44043 653:388.11588 654:496.60916 655:-156.11144 656:197.05356 657:101.42969 658:-351.05664 659:416.07239 660:-92.337036 661:-488.32529 662:616.69983 663:-267.64587 664:154.63907 665:211.46552 666:69.699707 667:309.69452 668:411.85333 669:-135.64416 670:417.7731 671:598.14905 672:-156.13818 673:196.65077 674:102.16943 675:-346.6745 676:457.69855 677:-59.638306 678:-479.03705 679:692.76495 680:-203.58862 681:154.33888 682:212.13213 683:68.328857 684:320.59515 685:453.69232 686:-108.99963 687:427.28882 688:682.70844 689:-156.48634 690:198.76531 691:97.427734 692:-343.30542 693:481.33801 694:-21.498901 695:-465.25665 696:749.24835 697:-131.56726 698:154.35913 699:212.71608 700:66.43042 701:325.52109 702:482.73065 703:-71.428223 704:424.16159 705:750.15546 706:-156.71687 707:198.6147 708:97.368774 709:-334.30542 710:501.94293 711:14.399292 712:-443.41263 713:797.54565 714:-54.952026 715:154.4874 716:211.56795 717:69.723755 718:321.1774 719:503.87909 720:-29.277954 721:415.32065 722:795.82929 723:-156.29938 724:199.40764 725:96.41394 726:-325.31201 727:521.54047 728:39.933472 729:-415.57584 730:837.05951 731:8.850952 732:154.64874 733:212.60451 734:66.119019 735:319.83374 736:518.13666 737:3.155029 738:417.64941 739:828.38873 740:-156.16344 741:199.77216 742:95.880859 743:-311.26373 744:532.38025 745:66.038574 746:-396.31867 747:854.75732 748:61.439697 749:154.58843 750:213.35983 751:63.790039 752:320.24756 753:526.64435 754:28.143921 755:407.25745 756:842.53314 757:-156.39819 758:199.26857 759:96.545044 760:-305.85425 761:548.75159 762:84.995728 763:-383.35519 764:872.9411 765:108.1499 766:154.42401 767:213.04665 768:65.220825 769:320.69754 770:532.88385 771:51.529053 772:401.80008 773:852.11151 774:-156.84039 775:198.93567 776:96.514893 777:-306.80975 778:549.6264 779:96.414429 780:-370.93945 781:875.99707 782:131.89136 783:154.05048 784:213.06522 785:66.039307 786:320.14893 787:536.36536 788:64.32959 789:388.21045 790:854.72107 791:-156.76819 792:199.42454 793:95.618896 794:-301.56738 795:551.54285 796:95.513672 797:-367.29706 798:878.21484 799:137.44678 800:154.11926 801:213.33299 802:65.006104 803:320.02698 804:527.70862 805:63.500244 806:384.06851 807:842.25671 808:-155.96382 809:198.18918 810:99.417114 811:-305.06137 812:550.15832 813:85.427612 814:-376.63318 815:879.05286 816:112.73804 817:154.98254 818:211.40778 819:69.099243 820:316.89682 821:519.87372 822:56.12793 823:378.50174 824:833.48029 825:-154.96683 826:197.79317 827:101.74048 828:-305.39011 829:550.84192 830:64.191772 831:-397.3613 832:872.21661 833:66.010254 834:155.22433 835:212.49635 836:65.105957 837:319.30267 838:513.61774 839:34.25 840:385.48123 841:831.3335 842:-155.01825 843:198.02043 844:101.2251 845:-316.18817 846:527.71539 847:31.226685 848:-416.2627 849:839.36713 850:-12.28772 851:155.40572 852:212.00746 853:66.266602 854:317.78528 855:497.875 856:4.874756 857:389.3526 858:809.98444 859:-155.92362 860:198.30444 861:99.230225 862:-323.70166 863:483.58258 864:-9.090454 865:-424.97665 866:773.6438 867:-105.48962 868:155.70212 869:208.55652 870:75.792969 871:323.79453 872:450.90863 873:-35.116699 874:384.03119 875:755.23029 876:-155.70348 877:197.9891 878:100.21472 879:-327.83695 880:429.85877 881:-47.44812 882:-428.81769 883:688.36493 884:-201.53748 885:156.36112 886:205.70844 887:81.985229 888:316.51172 889:385.19391 890:-69.842773 891:368.01697 892:675.28973 893:-156.10643 894:198.46124 895:98.626831 896:-333.86615 897:332.92602 898:-90.501831 899:-414.45862 900:567.89197 901:-274.67883 902:156.46515 903:201.6792 904:91.255493 905:312.86746 906:299.66873 907:-103.53113 908:357.47559 909:561.51306 910:-154.81607 911:198.16869 912:101.23718 913:-318.85571 914:203.21156 915:-59.194702 916:-357.24408 917:388.11951 918:-270.19641 919:157.5762 920:202.20372 921:88.154907 922:301.11563 923:201.68826 924:-37.112183 925:316.19595 926:359.14358 927:-153.93137 928:197.14201 929:104.53577 930:-318.73712 931:174.78468 932:-151.49719 933:-330.65942 934:245.69016 935:-418.3739 936:158.49612 937:199.85558 938:91.784302 939:321.95871 940:143.12953 941:9.113159 942:304.56357 943:224.88426 944:-153.0229 945:196.41472 946:107.20886 947:-317.75507 948:76.748993 949:-167.88379 950:-321.15771 951:123.68607 952:-447.60022 953:159.14499 954:200.38347 955:89.486694 956:306.07166 957:25.912277 958:-123.70203 959:242.57224 960:71.491638 961:-153.92972 962:194.98265 963:108.51685 964:-272.77673 965:37.080261 966:-152.6355 967:-302.3952 968:-45.700714 969:-426.30774 970:158.33505 971:199.56841 972:92.687744 973:281.10202 974:-5.536865 975:-70.799438 976:238.57297 977:-5.831665 978:-154.2048 979:194.28783 980:109.3728 981:-243.56262 982:-24.322113 983:-155.09521 984:-259.16669 985:-212.50949 986:-382.31226 987:157.98326 988:199.97508 989:92.415527 990:282.7525 991:-39.413605 992:-124.24744 993:243.42787 994:-102.15115 995:-154.87285 996:193.00566 997:110.69067 998:-220.30664 999:-37.757507 1000:-97.208374 1001:-224.59221 1002:-242.29654 1003:-314.78308 1004:157.19177 1005:200.65013 1006:92.301514 1007:249.88516 1008:-11.166351 1009:-90.37561 1010:209.57675 1011:-117.10321 1012:-153.00076 1013:195.20158 1014:109.42883 1015:-204.457 1016:-46.114624 1017:-70.482422 1018:-200.09296 1019:-254.75702 1020:-284.6698 1021:158.87369 1022:201.41881 1023:87.619751 1024:234.26123 1025:-6.080688 1026:-74.246704 1027:196.8945 1028:-142.54132 1029:-153.46317 1030:194.98914 1031:109.16541 1032:-197.39978 1033:-51.821167 1034:-58.663574 1035:-193.68353 1036:-268.57159 1037:-264.70349 1038:158.20103 1039:203.04205 1040:85.059937 1041:225.96464 1042:-17.607788 1043:-69.512207 1044:190.90114 1045:-178.86624 1046:-151.73387 1047:196.85349 1048:108.23096 1049:-197.6503 1050:-54.838348 1051:-56.796997 1052:-196.6924 1053:-274.88974 1054:-259.37244 1055:159.8089 1056:203.00827 1057:82.080566 1058:220.92676 1059:-23.158295 1060:-61.265747 1061:183.99411 1062:-201.5549 1063:-147.94873 1064:200.62025 1065:106.52576 1066:-195.00974 1067:-56.744293 1068:-58.824707 1069:-189.65889 1070:-294.54782 1071:-239.92541 1072:163.26021 1073:202.5649 1074:76.148804 1075:219.88686 1076:-26.939362 1077:-57.821167 1078:182.5439 1079:-216.42172 1080:-273.61316 
-3.971091051106317e-15 0 3.569331664751053e-14 1.286099265902796e-13 1:154.19379 2:185.47383 3:21.029907 4:201.02695 5:-46.252045 6:3.27063 7:236.23894 8:-318.14691 9:-142.74489 10:184.18268 11:68.993652 12:-217.92615 13:-63.760895 14:54.182129 15:-304.41244 16:-287.04184 17:-183.16724 18:153.37146 19:187.24262 20:21.837891 21:201.24594 22:-43.523987 23:1.243652 24:237.28549 25:-319.80551 26:-141.42836 27:184.33945 28:69.191772 29:-220.93674 30:-61.99353 31:49.036133 32:-204.65982 33:-361.69473 34:-125.48767 35:153.08879 36:186.56747 37:22.9552 38:198.46907 39:-45.061401 40:0.016357 41:231.97638 42:-322.57834 43:-141.58199 44:184.25406 45:69.46814 46:-219.8488 47:-60.300903 48:43.097534 49:-297.69196 50:-300.54169 51:-212.69617 52:153.71187 53:185.73514 54:26.38147 55:200.58263 56:-45.142151 57:0.81665 58:235.27144 59:-320.9892 60:-140.91467 61:184.58569 62:67.991333 63:-218.0139 64:-59.267456 65:41.426514 66:-294.53131 67:-308.01782 68:-206.1084 69:152.77394 70:184.78668 71:32.644409 72:200.01762 73:-46.081635 74:0.036987 75:237.93957 76:-326.91229 77:-139.76744 78:185.35768 79:67.534302 80:-217.23529 81:-58.083344 82:41.395874 83:-212.71423 84:-371.82025 85:-117.69641 86:151.65096 87:184.92671 88:35.460083 89:197.05168 90:-46.873901 91:-0.59375 92:238.396 93:-324.68695 94:-140.98567 95:185.31673 96:68.055664 97:-215.46237 98:-57.379791 99:39.024658 100:-205.39369 101:-371.21381 102:-117.67102 103:151.58707 104:185.61848 105:37.656006 106:195.93585 107:-45.881134 108:-1.446167 109:241.86282 110:-325.85376 111:-140.70134 112:185.08923 113:67.203369 114:-216.51958 115:-58.215271 116:36.26062 117:-203.95579 118:-372.80707 119:-124.96777 120:149.95129 121:185.99164 122:38.638428 123:194.78307 124:-46.731262 125:-2.086914 126:245.58394 127:-318.18903 128:-142.36652 129:185.92389 130:66.10791 131:-215.36327 132:-58.26886 133:33.63916 134:-276.21899 135:-302.44183 136:-204.89014 137:151.05209 138:186.25714 139:41.203613 140:195.58054 141:-47.001648 142:-0.635986 143:244.26163 144:-333.00092 145:-143.77068 146:186.4359 147:65.646362 148:-214.80588 149:-58.316864 150:28.840576 151:-275.59894 152:-304.63519 153:-209.94604 154:151.52054 155:186.96519 156:42.700806 157:196.17328 158:-47.444794 159:1.25061 160:251.42816 161:-327.26318 162:-145.86041 163:186.28828 164:66.192261 165:-213.41565 166:-57.524658 167:24.10437 168:-226.99295 169:-344.89386 170:-168.11291 171:152.72583 172:187.59706 173:42.920532 174:197.2012 175:-47.454163 176:1.895874 177:251.6452 178:-334.17419 179:-145.85832 180:186.82071 181:65.863647 182:-212.57825 183:-56.588287 184:20.992798 185:-231.67667 186:-345.181 187:-172.8186 188:152.44322 189:187.57388 190:45.735962 191:197.70548 192:-47.583405 193:4.010132 194:253.66829 195:-330.85129 196:-146.03447 197:186.30736 198:64.805542 199:-212.01727 200:-56.563873 201:18.994995 202:-242.17041 203:-327.61862 204:-188.96814 205:152.007 206:187.09441 207:46.106567 208:199.03369 209:-48.005127 210:5.493408 211:257.84906 212:-329.79123 213:-146.47101 214:186.20352 215:63.283691 216:-211.22415 217:-55.897186 218:19.061279 219:-240.4583 220:-328.3635 221:-194.07996 222:152.07259 223:186.57571 224:46.837646 225:200.8965 226:-50.516327 227:13.479248 228:259.19186 229:-332.56381 230:-146.9624 231:186.45747 232:61.637939 233:-210.55237 234:-54.961029 235:16.563232 236:-236.65961 237:-324.89029 238:-194.36011 239:151.9686 240:186.56483 241:47.567627 242:199.01816 243:-47.896515 244:11.238037 245:261.73373 246:-329.41287 247:-145.7263 248:187.41011 249:61.865234 250:-208.70227 251:-54.915985 252:8.082397 253:-237.74637 254:-323.41974 255:-196.34485 256:151.93832 257:186.07063 258:49.784424 259:196.97157 260:-48.559021 261:12.247437 262:251.5213 263:-329.74445 264:-145.12776 265:187.85014 266:63.427246 267:-207.60731 268:-53.24884 269:3.240723 270:-222.88493 271:-334.30273 272:-179.7854 273:151.97708 274:186.16539 275:51.168213 276:196.33147 277:-48.415222 278:11.430054 279:251.73766 280:-327.57129 281:-145.19296 282:188.04976 283:64.18811 284:-206.74103 285:-54.06012 286:-1.87439 287:-265.73807 288:-292.23041 289:-237.31995 290:152.41733 291:186.32606 292:51.140747 293:195.6669 294:-48.765564 295:10.218384 296:259.15265 297:-318.49567 298:-145.6521 299:188.37367 300:64.566528 301:-203.78239 302:-56.799561 303:-14.096558 304:-272.84818 305:-301.92609 306:-251.19263 307:152.62048 308:186.94807 309:51.238892 310:194.75841 311:-48.314819 312:9.928833 313:255.35028 314:-322.55054 315:-146.43385 316:187.81268 317:65.309937 318:-205.66334 319:-55.889862 320:-11.94397 321:-277.65292 322:-282.23242 323:-274.44458 324:152.94609 325:187.00812 326:51.160034 327:194.45366 328:-49.795258 329:10.897095 330:255.11859 331:-323.75665 332:-148.07781 333:188.47662 334:66.175659 335:-206.73689 336:-53.705048 337:-20.054199 338:-284.06988 339:-265.32651 340:-302.02356 341:155.1169 342:187.04028 343:52.767212 344:193.37074 345:-51.961823 346:9.56665 347:257.50943 348:-327.23959 349:-147.06326 350:188.0793 351:65.83606 352:-207.27739 353:-46.93573 354:-28.540894 355:-284.57901 356:-229.62573 357:-339.75488 358:153.81372 359:186.96333 360:52.171509 361:193.52589 362:-52.46521 363:10.498535 364:250.79423 365:-322.26941 366:-147.85616 367:187.5052 368:65.582031 369:-209.27467 370:-36.310577 371:-40.328613 372:-285.54126 373:-173.86829 374:-387.01331 375:153.30891 376:187.20357 377:52.648438 378:192.69188 379:-51.41803 380:10.858154 381:252.09587 382:-338.36316 383:-147.49217 384:187.03334 385:65.663452 386:-212.29987 387:-24.726837 388:-47.788818 389:-265.31696 390:-93.53244 391:-405.87524 392:153.68327 393:186.01485 394:53.170044 395:191.51509 396:-51.470551 397:12.618286 398:258.25485 399:-331.31921 400:-147.4931 401:183.29991 402:65.359009 403:-216.86563 404:-29.946472 405:-46.951904 406:-246.72641 407:-23.88855 408:-427.43738 409:152.04007 410:183.41228 411:53.559692 412:188.11182 413:-53.187988 414:10.991089 415:258.66071 416:-322.41876 417:-147.79636 418:185.57194 419:66.717041 420:-218.05527 421:-25.466034 422:-46.383545 423:-225.32825 424:74.145493 425:-412.85205 426:155.32355 427:183.37975 428:54.574219 429:191.15964 430:-51.959656 431:10.798096 432:254.79196 433:-331.24429 434:-156.85478 435:185.92473 436:76.157227 437:-236.22609 438:-13.951202 439:-68.28125 440:-205.83881 441:117.31328 442:-419.07678 443:157.70366 444:192.49565 445:55.193604 446:196.25743 447:-42.542419 448:11.416016 449:269.62729 450:-312.7742 451:-150.71336 452:185.68396 453:74.314819 454:-247.89229 455:1.09082 456:-69.391846 457:-183.41722 458:164.18555 459:-364.30798 460:153.94162 461:190.38373 462:52.647583 463:194.09842 464:-45.490234 465:9.092407 466:265.26483 467:-313.6889 468:-137.19949 469:195.20827 470:63.595337 471:-246.99037 472:-12.44754 473:-54.787598 474:-140.06001 475:205.11116 476:-321.89465 477:150.48413 478:188.66371 479:52.296021 480:191.3309 481:-47.523956 482:9.536377 483:259.52841 484:-313.93851 485:-135.14279 486:199.82451 487:58.926636 488:-239.42395 489:0.184082 490:-44.424438 491:-108.36161 492:227.75885 493:-252.2146 494:151.95212 495:190.03471 496:49.630005 497:192.01456 498:-46.452454 499:8.05481 500:265.08368 501:-302.9859 502:-135.15536 503:203.66336 504:61.914429 505:-236.3822 506:0.562622 507:-35.038086 508:-78.695724 509:224.61282 510:-204.79236 511:152.87857 512:194.04568 513:50.532837 514:194.95317 515:-41.576996 516:10.028687 517:264.62643 518:-298.95648 519:-132.57257 520:199.59563 521:71.571655 522:-221.81149 523:-17.425232 524:-5.497192 525:-55.90781 526:203.7543 527:-142.87683 528:142.90002 529:203.8029 530:24.090942 531:197.08528 532:-43.642151 533:27.749634 534:264.65121 535:-303.94061 536:-133.16663 537:194.24745 538:83.904663 539:-219.99139 540:-16.485962 541:-7.05542 542:-33.868938 543:195.18442 544:-117.90747 545:146.33716 546:200.03749 547:32.800415 548:199.45145 549:-37.372437 550:15.211792 551:260.80063 552:-299.66107 553:-128.62457 554:183.4969 555:99.911865 556:-217.37329 557:9.938019 558:-23.576416 559:-16.032555 560:192.47974 561:-115.01599 562:145.26996 563:194.89986 564:33.293457 565:198.19788 566:-39.803833 567:11.10437 568:256.47876 569:-310.841 570:-121.8658 571:175.33284 572:104.40393 573:-200.96164 574:20.812073 575:-44.938843 576:-251.92862 577:-71.590637 578:-19.208496 579:141.41528 580:187.48653 581:36.654907 582:198.21167 583:-36.708496 584:1.273926 585:258.629 586:-309.91949 587:-120.78329 588:175.91213 589:103.84717 590:-205.81952 591:10.789001 592:-44.352905 593:-263.78625 594:-97.880249 595:-8.806763 596:142.79875 597:185.06258 598:40.967041 599:196.23025 600:-35.227783 601:-5.342407 602:258.80737 603:-313.66965 604:-119.36723 605:178.69138 606:104.3949 607:-210.76578 608:5.801147 609:-38.968506 610:-273.15961 611:-102.90475 612:-4.448853 613:142.5779 614:187.64609 615:39.216675 616:194.44344 617:-30.397522 618:-10.293945 619:258.09216 620:-310.75189 621:-119.44325 622:181.58499 623:101.1228 624:-240.25258 625:-11.560394 626:-6.967285 627:-184.45567 628:-44.40152 629:-157.03894 630:144.02127 631:187.56863 632:39.262207 633:195.08397 634:-34.169037 635:-3.400635 636:262.54449 637:-307.54385 638:-118.65911 639:187.86145 640:88.156616 641:-249.39291 642:-24.004517 643:18.018066 644:-150.8819 645:-40.903931 646:-247.72229 647:143.44678 648:187.58795 649:37.111938 650:191.5871 651:-39.38504 652:1.262451 653:256.52261 654:-313.98798 655:-124.5282 656:188.80234 657:80.803223 658:-250.98285 659:-30.231628 660:31.340332 661:-179.49589 662:-82.949219 663:-276.1759 664:145.57712 665:187.41855 666:36.937256 667:191.29181 668:-40.080383 669:2.105103 670:258.12656 671:-312.53705 672:-129.73245 673:190.09888 674:77.292725 675:-250.30713 676:-35.136871 677:32.09375 678:-213.00391 679:-105.04312 680:-310.99927 681:147.09949 682:189.93237 683:35.067383 684:191.70126 685:-38.147186 686:-0.589478 687:261.12402 688:-309.44067 689:-139.06087 690:187.63088 691:72.229736 692:-254.20076 693:-41.23941 694:-1.01001 695:-227.44183 696:-114.12073 697:-372.20422 698:152.192 699:187.59969 700:37.474854 701:193.26877 702:-40.634216 703:-1.941284 704:263.5332 705:-319.56085 706:-139.19939 707:188.37393 708:70.53772 709:-254.00342 710:-39.277405 711:-23.955566 712:-266.91382 713:-123.69806 714:-413.4021 715:152.38032 716:185.35611 717:47.540894 718:194.97852 719:-40.486267 720:-5.917725 721:263.35257 722:-321.16925 723:-136.31357 724:189.72461 725:71.905396 726:-249.70752 727:-28.557495 728:-37.484619 729:-293.69223 730:-99.344543 731:-413.24878 732:152.58485 733:185.26843 734:46.2677 735:194.43298 736:-43.260803 737:-3.33606 738:259.78754 739:-316.90826 740:-136.04423 741:190.89113 742:70.2229 743:-248.64949 744:-22.086426 745:-44.174072 746:-310.42151 747:-66.237335 748:-446.22217 749:153.49974 750:183.72859 751:50.600098 752:194.43948 753:-42.920044 754:-5.165771 755:253.21814 756:-323.17804 757:-136.19019 758:192.83479 759:68.313232 760:-250.73314 761:-15.710938 762:-40.194946 763:-303.96252 764:-19.935333 765:-429.5564 766:154.46814 767:183.20125 768:54.558594 769:195.22978 770:-41.126709 771:-7.712646 772:254.2885 773:-315.5 774:-135.1232 775:194.58737 776:61.273315 777:-252.53262 778:-8.5672 779:-36.31543 780:-295.12604 781:34.653412 782:-438.97986 783:155.18088 784:180.19101 785:57.680786 786:194.66412 787:-45.557831 788:-5.322388 789:250.12628 790:-316.21222 791:-137.47081 792:193.46841 793:64.129028 794:-242.08475 795:6.080566 796:-54.63623 797:-270.94019 798:92.046295 799:-454.95105 800:156.23323 801:180.23196 802:59.568726 803:194.16872 804:-45.131714 805:-8.001099 806:253.79654 807:-319.79144 808:-137.99095 809:193.94376 810:66.73291 811:-234.40634 812:13.605896 813:-61.368164 814:-253.77441 815:147.56239 816:-445.59094 817:156.97609 818:181.0209 819:60.818604 820:194.41333 821:-44.217285 822:-9.441284 823:252.01559 824:-324.49652 825:-144.59421 826:194.19769 827:70.419678 828:-226.61328 829:8.725311 830:-74.855469 831:-222.03787 832:147.50757 833:-417.547 834:159.03223 835:185.66382 836:61.780762 837:196.68088 838:-40.567413 839:-8.710693 840:254.189 841:-326.77084 842:-150.73071 843:195.05324 844:67.19519 845:-232.66116 846:1.934967 847:-85.364136 848:-183.40105 849:202.70274 850:-382.52673 851:161.56062 852:187.55605 853:63.258423 854:199.01028 855:-38.535309 856:-9.630249 857:257.20123 858:-323.26047 859:-149.65294 860:203.66986 861:48.860107 862:-242.675 863:2.598694 864:-79.120972 865:-137.90251 866:245.48828 867:-323.63208 868:163.05238 869:188.36255 870:64.793701 871:200.81189 872:-37.902954 873:-8.895142 874:256.95636 875:-325.37421 876:-147.34277 877:200.68446 878:40.770264 879:-241.99852 880:0.429169 881:-81.629761 882:-112.19165 883:249.38771 884:-268.78137 885:159.47107 886:182.77937 887:69.333008 888:197.37549 889:-44.634644 890:-1.592041 891:249.78894 892:-331.25461 893:-146.13847 894:200.35525 895:43.968384 896:-241.16199 897:19.192947 898:-64.80542 899:-78.995232 900:255.67017 901:-216.58313 902:158.78873 903:183.24924 904:68.101196 905:196.16907 906:-44.892151 907:-4.369629 908:253.79233 909:-328.11682 910:-142.37695 911:198.68108 912:66.077026 913:-240.4381 914:14.673096 915:-62.609253 916:-44.582088 917:256.63568 918:-179.44421 919:157.65689 920:186.73985 921:66.212524 922:194.27631 923:-40.999939 924:-5.953735 925:245.29019 926:-328.40881 927:-138.2495 928:194.63013 929:78.085449 930:-224.48868 931:7.182556 932:-35.913086 933:-38.463017 934:230.47885 935:-136.44849 936:156.85747 937:186.96332 938:59.427246 939:194.39053 940:-33.226807 941:-2.342407 942:242.73236 943:-319.80774 944:-139.40576 945:187.37801 946:84.43457 947:-221.53165 948:-24.057983 949:-20.82959 950:-27.696514 951:210.29269 952:-100.72852 953:157.01929 954:183.88209 955:56.621582 956:195.36175 957:-25.311401 958:-5.287109 959:251.4599 960:-294.3913 961:-134.33 962:184.5567 963:91.363037 964:-213.15039 965:-20.686218 966:-19.175293 967:-13.775318 968:200.70908 969:-77.20752 970:154.19347 971:182.74408 972:57.288086 973:189.84715 974:-31.682251 975:-15.446777 976:250.76578 977:-303.51428 978:-122.2798 979:185.15546 980:85.055786 981:-211.81534 982:-26.908569 983:-14.639404 984:-219.70538 985:143.03247 986:83.573486 987:150.18747 988:175.89557 989:54.533081 990:184.6803 991:-27.57547 992:-12.823486 993:250.81189 994:-296.26135 995:-130.4283 996:182.62447 997:77.910889 998:-222.55324 999:-36.791595 1000:-0.787231 1001:-155.79898 1002:15.392334 1003:-18.62915 1004:152.5493 1005:174.02217 1006:53.650391 1007:186.09056 1008:-30.764862 1009:-10.417236 1010:249.24911 1011:-302.49725 1012:-126.32587 1013:183.72029 1014:80.438477 1015:-229.14433 1016:-40.72937 1017:5.812988 1018:-159.34128 1019:2.827911 1020:-20.451172 1021:152.58067 1022:172.49525 1023:56.091553 1024:185.4547 1025:-32.465149 1026:-6.575562 1027:251.61363 1028:-309.94907 1029:-128.8317 1030:184.21578 1031:81.314453 1032:-228.6799 1033:-42.334259 1034:21.984497 1035:-157.05757 1036:5.183777 1037:-21.650146 1038:152.55572 1039:175.43953 1040:55.613525 1041:186.28354 1042:-33.8797 1043:-2.336792 1044:252.85022 1045:-302.23941 1046:-130.03409 1047:183.18103 1048:84.176392 1049:-231.591 1050:-48.899902 1051:28.962158 1052:-96.092033 1053:66.442902 1054:-71.333252 1055:151.24451 1056:178.04675 1057:54.536987 1058:186.61227 1059:-36.341461 1060:-1.341919 1061:255.2019 1062:-310.9881 1063:-135.93713 1064:182.41055 1065:87.937988 1066:-233.03998 1067:-54.817139 1068:21.121216 1069:-177.7925 1070:-54.118927 1071:-48.725464 1072:154.11954 1073:181.21292 1074:53.802002 1075:189.6839 1076:-30.386292 1077:-2.018555 1078:258.03857 1079:-305.73917 1080:-157.7041 
-1.682140882213146e-15 3.108182214109032e-14 5.121258624578075e-15 6.099723643726622e-14 1:170.9722 2:201.33266 3:67.293335 4:170.97473 5:-85.247498 6:67.292114 7:171.31308 8:-371.82416 9:-153.41699 10:213.85944 11:70.869629 12:-153.41792 13:-72.720795 14:70.867432 15:-153.82132 16:-359.29627 17:69.314087 18:170.48807 19:201.54559 20:67.884766 21:170.49007 22:-85.034546 23:67.883789 24:170.79489 25:-371.61188 26:-154.05878 27:213.67407 28:70.029785 29:-154.05927 30:-72.906158 31:70.027954 32:-154.42252 33:-359.48254 34:68.629883 35:169.85623 36:201.29883 37:70.160889 38:169.85773 39:-85.281311 40:70.160156 41:170.13226 42:-371.85919 43:-153.41689 44:214.18176 45:69.88916 46:-153.41704 47:-72.398468 48:69.887695 49:-153.74414 50:-358.97562 51:68.629517 52:170.44315 53:200.47272 54:71.0979 55:170.44428 56:-86.107422 57:71.09729 58:170.6915 59:-372.68576 60:-153.42841 61:214.35281 62:69.338623 63:-153.42825 64:-72.227417 65:69.337524 66:-153.72269 67:-358.80514 68:68.2052 69:170.41971 70:200.43362 71:71.265381 72:170.42059 73:-86.146515 74:71.264893 75:170.64325 76:-372.72519 77:-153.30653 78:214.44009 79:69.337524 80:-153.30615 81:-72.140137 82:69.33667 83:-153.57108 84:-358.71838 85:68.317505 86:170.55894 87:200.80826 88:69.863159 89:170.55963 90:-85.771881 91:69.862793 92:170.76012 93:-372.35083 94:-153.55547 95:214.55742 96:68.414307 97:-153.55489 98:-72.022827 99:68.413574 100:-153.79324 101:-358.60144 102:67.496338 103:170.23943 104:200.03215 105:72.803711 106:170.23991 107:-86.547974 108:72.803345 109:170.42041 110:-373.12714 111:-153.03126 112:214.63846 113:69.331543 114:-153.03055 115:-71.941772 116:69.330933 117:-153.24492 118:-358.52066 119:68.505493 120:170.77309 121:199.8663 122:72.007812 123:170.77342 124:-86.713837 125:72.007568 126:170.93597 127:-373.29318 128:-152.64728 129:214.8632 130:69.482422 131:-152.64645 132:-71.717041 133:69.481934 134:-152.83922 135:-358.2962 136:68.739014 137:171.11899 138:199.35149 139:72.611816 140:171.1192 141:-87.228638 142:72.611572 143:171.26559 144:-373.80811 145:-152.46539 146:215.82225 147:66.855469 148:-152.46448 149:-70.757996 150:66.855103 151:-152.63785 152:-357.33734 153:66.186401 154:171.13745 155:198.6367 156:74.498535 157:171.13757 158:-87.94342 159:74.498413 160:171.26944 161:-374.52301 162:-152.45306 163:216.6909 164:64.013184 165:-152.45206 166:-69.889343 167:64.012939 168:-152.60809 169:-356.46881 170:63.411133 171:170.94028 172:198.18706 173:76.130615 174:170.94031 175:-88.393066 176:76.130493 177:171.05899 178:-374.97278 179:-152.5632 180:215.4942 181:67.677734 182:-152.56221 183:-71.086029 184:67.67749 185:-152.70254 186:-357.66568 187:67.135864 188:170.82617 189:196.84412 190:79.7771 191:170.82614 192:-89.736023 193:79.7771 194:170.93301 195:-376.31576 196:-153.06586 197:214.90945 198:68.40625 199:-153.06485 200:-71.670776 201:68.406006 202:-153.19113 203:-358.2504 204:67.918579 205:170.258 206:196.32748 207:82.234009 208:170.25789 209:-90.252655 210:82.234009 211:170.35419 212:-376.83243 213:-153.2919 214:215.19771 215:66.97937 216:-153.29091 217:-71.382538 218:66.979248 219:-153.40468 220:-357.96219 221:66.540527 222:169.78619 223:195.69331 224:84.684692 225:169.78606 226:-90.88681 227:84.684692 228:169.87288 229:-377.46658 230:-153.61824 231:214.96437 232:66.983643 233:-153.61725 234:-71.615845 235:66.983521 236:-153.71985 237:-358.19556 238:66.588745 239:169.61331 240:196.55702 241:83.016235 242:169.61313 243:-90.023132 244:83.016235 245:169.69159 246:-376.60291 247:-153.65443 248:213.79475 249:70.538208 250:-153.65344 251:-72.785461 252:70.538086 253:-153.74603 254:-359.36523 255:70.182739 256:169.53981 257:194.95827 258:86.839233 259:169.53964 260:-91.621887 261:86.839233 262:169.61049 263:-378.20172 264:-153.33302 265:214.18878 266:70.049805 267:-153.33203 268:-72.391449 269:70.049683 270:-153.41562 271:-358.97119 272:69.729858 273:169.64732 274:193.99756 275:88.76709 276:169.64716 277:-92.582581 278:88.76709 279:169.71123 280:-379.16242 281:-155.16162 282:214.34701 283:65.372437 284:-155.16063 285:-72.233215 286:65.372314 287:-155.23616 288:-358.81299 289:65.084473 290:167.68373 291:196.06345 292:87.946533 293:167.68356 294:-90.516693 295:87.946533 296:167.74159 297:-377.0965 298:-155.02658 299:214.88126 300:63.935547 301:-155.02559 302:-71.698975 303:63.935547 304:-155.0939 305:-358.27878 306:63.676514 307:167.66144 308:195.9678 309:88.211426 310:167.66127 311:-90.612335 312:88.211426 313:167.71381 314:-377.19217 315:-155.97998 316:214.72443 317:62.117432 318:-188.93182 319:-169.15369 320:-32.737549 321:-189.25026 322:-202.5791 323:-39.615112 324:166.62604 325:196.85193 326:88.204224 327:166.62587 328:-89.72821 329:88.204224 330:166.67357 331:-376.30804 332:-156.0968 333:214.61665 334:62.197632 335:-193.40637 336:-47.590332 337:-47.272339 338:-214.61287 339:-298.48236 340:-184.13586 341:166.35159 342:196.31972 343:89.893311 344:166.35143 345:-90.260437 346:89.893311 347:166.39478 348:-376.84027 349:-156.74562 350:215.25275 351:58.208618 352:-217.30158 353:-78.457489 354:-123.41748 355:-237.28152 356:-264.20422 357:-331.68909 358:166.06545 359:199.52331 360:83.089844 361:166.06528 362:-87.056824 363:83.089844 364:166.10474 365:-373.63666 366:-157.31996 367:214.73154 368:58.612305 369:-222.97704 370:-47.557465 371:-163.30139 372:-233.64459 373:-167.89279 374:-417.40771 375:165.71904 376:200.52377 377:81.375977 378:165.71887 379:-86.056366 380:81.375977 381:165.75482 382:-372.63626 383:-158.24704 384:213.8266 385:59.422119 386:-218.33289 387:-12.676331 388:-167.86291 389:-213.18658 390:-56.499054 391:-443.16248 392:164.99248 393:201.52368 394:80.378174 395:164.99231 396:-85.056458 397:80.378174 398:165.02515 399:-371.63629 400:-161.07788 401:211.54125 402:59.982422 403:-217.45099 404:2.098877 405:-185.09375 406:-184.69429 407:40.600098 408:-463.86743 409:162.16638 410:202.90837 411:82.607056 412:162.16621 413:-83.671753 414:82.607056 415:162.19624 416:-370.25159 417:-161.13269 418:213.73994 419:51.397583 420:-196.16293 421:72.82283 422:-203.40662 423:-79.175926 424:298.56354 425:-329.50183 426:161.61182 427:204.37471 428:80.0177 429:161.61166 430:-82.205414 431:80.0177 432:161.63916 433:-368.78525 434:-162.3564 435:213.04353 436:50.468018 437:-187.71442 438:85.654327 439:-182.74268 440:-42.462776 441:319.10092 442:-258.9773 443:160.10025 444:204.60115 445:82.464844 446:160.1001 447:-81.978973 448:82.464844 449:160.12537 450:-368.55881 451:-162.33594 452:214.16745 453:45.522095 454:-176.06403 455:89.904343 456:-163.92346 457:-12.862648 458:325.20697 459:-196.70032 460:159.98923 461:206.07571 462:78.925171 463:159.98904 464:-80.504425 465:78.925171 466:160.01227 467:-367.08423 468:-163.97145 469:211.17644 470:53.000366 471:-166.2312 472:69.835266 473:-149.51428 474:10.377171 475:303.75757 476:-141.93066 477:159.03224 478:206.49437 479:79.749756 480:159.03207 481:-80.085754 482:79.749756 483:159.05348 484:-366.66559 485:-160.58479 486:214.4507 487:50.151367 488:-172.28592 489:53.006943 490:-124.15881 491:15.015308 492:281.69308 493:-89.139038 494:162.39111 495:205.24977 496:76.114502 497:162.39094 498:-81.330383 499:76.114502 500:162.41069 501:-367.91022 502:-161.27889 503:213.14282 504:53.415649 505:-188.13283 506:26.221741 507:-98.490967 508:21.731216 509:234.26996 510:-53.459717 511:162.1226 512:206.14978 513:74.246216 514:162.12244 515:-80.430359 516:74.246216 517:162.14075 518:-367.01019 519:-158.90852 520:214.75378 521:54.061279 522:-210.37614 523:-1.772461 524:-94.125244 525:13.983753 526:194.39371 527:-68.74292 528:164.6441 529:205.20917 530:71.240967 531:164.64394 532:-81.370972 533:71.240967 534:164.66095 535:-367.95084 536:-158.92975 537:213.91762 538:57.220703 539:-245.85242 540:-51.628845 541:-63.312378 542:-17.688358 543:133.72469 544:-113.26758 545:164.9639 546:206.25429 547:67.377441 548:164.96373 549:-80.325867 550:67.377441 551:164.97952 552:-366.9057 553:-155.29994 554:216.1225 555:58.870361 556:-247.59006 557:-56.528137 558:-65.611328 559:-9.525627 560:100.48634 561:-154.51233 562:168.5499 563:203.94653 564:65.494141 565:168.54974 566:-82.633606 567:65.494141 568:168.56448 569:-369.21344 570:-156.66363 571:215.0397 572:59.235229 573:-249.68817 574:-35.936707 575:-47.489868 576:-2.751869 577:35.183167 578:-178.79187 579:167.19101 580:204.26376 581:67.954956 582:167.19083 583:-82.316376 584:67.954956 585:167.20465 586:-368.89621 587:-156.45995 588:214.86644 589:60.396729 590:-237.75745 591:-34.281036 592:-41.299683 593:-25.694271 594:-17.114044 595:-240.51245 596:167.44316 597:204.25011 598:67.377686 599:167.44299 600:-82.330048 601:67.377686 602:167.45596 603:-368.90988 604:-155.19017 605:216.29059 606:58.558105 607:-238.75528 608:-44.750336 609:-60.957153 610:-72.314323 611:-67.229218 612:-301.7561 613:168.63129 614:203.7088 615:66.036865 616:168.63113 617:-82.871338 618:66.036865 619:168.64337 620:-369.45117 621:-155.41 622:214.90581 623:62.890869 624:-257.01422 625:-49.205475 626:-91.296143 627:-119.996 628:-109.22922 629:-344.26355 630:168.36206 631:201.97179 632:71.789062 633:168.36189 634:-84.608368 635:71.789062 636:168.37341 637:-371.1882 638:-155.41251 639:215.5395 640:60.698364 641:-265.2099 642:-51.076691 643:-126.85693 644:-157.05545 645:-127.8472 646:-389.9884 647:168.2684 648:202.05238 649:71.799683 650:168.26823 651:-84.52774 652:71.799683 653:168.27911 654:-371.10757 655:-154.59074 656:216.35675 657:59.883423 658:-266.85297 659:-47.933228 660:-161.63806 661:-188.69083 662:-138.76404 663:-439.43591 664:168.84724 665:200.59888 666:74.466675 667:168.84708 668:-85.981262 669:74.466675 670:168.85738 671:-372.56113 672:-155.82638 673:215.56427 674:59.531982 675:-265.64279 676:-36.432953 677:-191.39355 678:-213.18102 679:-135.2193 680:-482.04651 681:167.38922 682:200.19629 683:78.71582 684:167.38905 685:-86.38385 686:78.71582 687:167.39888 688:-372.96371 689:-158.60904 690:214.14452 691:57.25769 692:-273.41159 693:-29.680939 694:-210.45471 695:-242.51787 696:-113.22113 697:-519.26306 698:164.35841 699:201.46648 700:81.797119 701:164.35825 702:-85.113678 703:81.797119 704:164.36763 705:-371.69351 706:-158.3797 707:215.0851 708:54.297729 709:-273.60361 710:-10.851715 711:-215.67444 712:-254.87061 713:-67.927582 714:-531.45276 715:164.59018 716:202.43391 717:78.895874 718:164.59 719:-84.14621 720:78.895874 721:164.59897 722:-370.72604 723:-159.29513 724:214.95966 725:52.077759 726:-273.45325 727:8.163605 728:-235.02844 729:-255.74245 730:-8.562866 731:-549.80066 732:163.53259 733:203.2829 734:78.916992 735:163.53242 736:-83.297241 737:78.916992 738:163.54099 739:-369.87705 740:-159.96692 741:214.47723 742:52.010132 743:-274.33875 744:45.6875 745:-247.97217 746:-245.799 747:52.023666 748:-560.23633 749:162.74347 750:203.31995 751:80.439819 752:162.7433 753:-83.260193 754:80.439819 755:162.75151 756:-369.84003 757:-160.67798 758:214.4057 759:50.076416 760:-267.65353 761:106.97414 762:-206.49585 763:-249.88632 764:127.37184 765:-517.27954 766:161.79099 767:203.74164 768:81.289185 769:161.79082 770:-82.838501 771:81.289185 772:161.79871 773:-369.41834 774:-161.44284 775:213.64673 776:50.848999 777:-247.59788 778:93.369446 779:-237.01892 780:-218.31497 781:178.0632 782:-529.36816 783:160.76166 784:203.15021 785:84.735107 786:160.76149 787:-83.429932 788:84.735107 789:160.76912 790:-370.0098 791:-163.44507 792:210.74359 793:56.244019 794:-243.04803 795:89.891449 796:-241.80884 797:-188.12068 798:229.66122 799:-497.47998 800:158.74959 801:202.12164 802:90.752197 803:158.74942 804:-84.458496 805:90.752197 806:158.75687 807:-371.03836 808:-162.16188 809:212.58818 810:52.933716 811:-229.99319 812:92.187531 813:-242.30481 814:-155.78995 815:278.20215 816:-458.94739 817:160.21138 818:203.2448 819:85.534058 820:160.21121 821:-83.335358 822:85.534058 823:160.21841 824:-369.91519 825:-161.83066 826:213.67857 827:49.453125 828:-215.40338 829:102.19003 830:-246.44544 831:-113.45085 832:319.46863 833:-412.64148 834:160.57483 835:204.49925 836:81.787109 837:160.57466 838:-82.080872 839:81.787109 840:160.58168 841:-368.66071 842:-160.70837 843:213.76981 844:52.601196 845:-198.90903 846:104.35001 847:-231.95593 848:-89.78289 849:342.13306 850:-356.18738 851:161.24567 852:201.30325 853:88.138916 854:161.2455 855:-85.276886 856:88.138916 857:161.25236 858:-371.85675 859:-162.06805 860:212.95267 861:51.762207 862:-182.78038 863:99.006317 864:-217.5354 865:-63.423058 866:348.06741 867:-298.3042 868:160.09598 869:203.05655 870:86.206421 871:160.09581 872:-83.52359 873:86.206421 874:160.10249 875:-370.10345 876:-160.00652 877:215.54961 878:47.215698 879:-176.89209 880:91.455368 881:-191.54846 882:-39.149117 883:339.45331 884:-238.3634 885:161.7312 886:202.4901 887:84.462036 888:161.73105 889:-84.090057 890:84.462036 891:161.73761 892:-370.66989 893:-160.94885 894:214.35593 895:49.408081 896:-172.41396 897:76.07045 898:-169.22058 899:-18.64473 900:319.44406 901:-183.08581 902:161.39194 903:203.80527 904:81.916016 905:161.39178 906:-82.774872 907:81.916016 908:161.39822 909:-369.35471 910:-161.57785 911:213.01994 912:53.000244 913:-161.98585 914:59.796097 915:-145.18054 916:1.768066 917:299.55399 918:-138.50964 919:161.37564 920:204.76592 921:79.515869 922:161.37546 923:-81.814209 924:79.515869 925:161.38174 926:-368.39404 927:-163.09863 928:212.576 929:50.027466 930:-174.59561 931:38.667053 932:-129.578 933:8.189732 934:264.35037 935:-112.10327 936:160.09724 937:207.67372 938:74.384155 939:160.09708 940:-78.906433 941:74.384155 942:160.10323 943:-365.48627 944:-162.87413 945:211.45145 946:55.253174 947:-188.18842 948:19.891907 949:-104.67896 950:12.162621 951:232.58283 952:-92.226685 953:160.87839 954:208.3367 955:70.75708 956:160.87823 957:-78.243439 958:70.75708 959:160.88428 960:-364.82324 961:-159.61276 962:213.36705 963:57.367432 964:-200.22803 965:1.293518 966:-89.182617 967:17.985924 968:197.01649 969:-86.026123 970:164.28082 971:206.53941 972:68.162109 973:164.28067 974:-80.040741 975:68.162109 976:164.28662 977:-366.62057 978:-159.15787 979:212.80368 980:60.636475 981:-208.09416 982:-15.476013 983:-73.250854 984:18.716412 985:159.25546 986:-88.407227 987:164.92007 988:207.33194 989:64.095703 990:164.91991 991:-79.248199 992:64.095703 993:164.92577 994:-365.82806 995:-158.23651 996:212.92757 997:62.589111 998:-254.0264 999:-54.915619 1000:-42.617798 1001:-34.047272 1002:104.2097 1003:-130.92004 1004:165.86229 1005:207.41157 1006:61.355469 1007:165.86212 1008:-79.168549 1009:61.355469 1010:165.86793 1011:-365.74838 1012:-158.18814 1013:213.08505 1014:62.18042 1015:-245.73817 1016:-49.899231 1017:-22.155396 1018:-27.383942 1019:70.731903 1020:-152.91931 1021:165.9137 1022:207.49393 1023:60.943115 1024:165.91353 1025:-79.086212 1026:60.943115 1027:165.91923 1028:-365.66602 1029:-157.94128 1030:212.86372 1031:63.550537 1032:-239.13399 1033:-47.994812 1034:-6.944214 1035:-33.376545 1036:26.912933 1037:-178.49133 1038:166.1499 1039:207.50026 1040:60.273926 1041:166.14973 1042:-79.079895 1043:60.273926 1044:166.1554 1045:-365.65973 1046:-155.39093 1047:214.03815 1048:65.842285 1049:-268.13794 1050:-66.473572 1051:-17.446655 1052:-59.993313 1053:-20.855316 1054:-207.48291 1055:168.57387 1056:206.08154 1057:58.370605 1058:168.5737 1059:-80.498596 1060:58.370605 1061:168.57936 1062:-367.07843 1063:-155.57802 1064:213.77611 1065:66.259766 1066:-274.34079 1067:-73.285278 1068:-12.692017 1069:-91.781204 1070:-70.040436 1071:-232.59521 1072:168.39519 1073:206.15538 1074:58.635742 1075:168.39502 1076:-80.424744 1077:58.635742 1078:168.40068 1079:-367.00458 1080:58.633911 
-0 1.423544001038943e-14 0 0 1:170.22632 2:199.40358 3:74.541016 4:170.22613 5:-87.176575 6:74.541016 7:170.23181 8:-373.75641 9:-153.41367 10:215.68631 11:65.105103 12:-211.93689 13:-63.789703 14:-33.634033 15:-229.00598 16:-304.67773 17:-236.25366 18:170.23886 19:199.7728 20:73.515747 21:170.23871 22:-86.807343 23:73.515747 24:170.24435 25:-373.38721 26:-153.11339 27:216.15347 28:64.257935 29:-213.15442 30:-59.210541 31:-31.848999 32:-232.89807 33:-303.55518 34:-230.03198 35:170.4709 36:199.4866 37:73.755859 38:170.47073 39:-87.093536 40:73.755859 41:170.47639 42:-373.6734 43:-152.56433 44:216.56726 45:64.170166 46:-216.76773 47:-58.788696 48:-28.693359 49:-231.17537 50:-301.6449 51:-229.15271 52:170.93793 53:198.82062 54:74.469116 55:170.93776 56:-87.759521 57:74.469116 58:170.94342 59:-374.33936 60:-153.13942 61:216.24609 62:63.881958 63:-215.25717 64:-60.10376 65:-29.481567 66:-230.49057 67:-304.43967 68:-228.0813 69:170.30479 70:198.71771 71:76.174194 72:170.30463 73:-87.862427 74:76.174194 75:170.31029 76:-374.44223 77:-152.90909 78:217.41144 79:60.361694 80:-214.64531 81:-53.18396 82:-27.488403 83:-233.30881 84:-299.09338 85:-223.83752 86:170.64055 87:200.49255 88:70.547974 89:170.64038 90:-86.087585 91:70.547974 92:170.64604 93:-372.66742 94:-152.87054 95:217.02988 96:61.81897 97:-213.13075 98:-60.234161 99:-32.060791 100:-229.757 101:-304.94794 102:-230.08252 103:170.44907 104:198.66818 105:75.967285 106:170.4489 107:-87.911957 108:75.967285 109:170.45456 110:-374.49182 111:-152.69504 112:217.12129 113:61.947388 114:-212.02869 115:-64.91684 116:-36.052979 117:-230.45451 118:-308.83426 119:-234.89771 120:170.66879 121:198.79201 122:75.158447 123:170.66862 124:-87.788116 125:75.158447 126:170.67429 127:-374.36795 128:-152.40399 129:217.38049 130:61.755127 131:-212.14185 132:-57.886688 133:-32.202271 134:-234.11963 135:-302.80197 136:-229.45007 137:170.81982 138:198.03186 139:76.804565 140:170.81967 141:-88.548279 142:76.804565 143:170.82532 144:-375.12814 145:-153.75452 146:217.85561 147:56.49231 148:-215.07655 149:-52.597382 150:-34.622192 151:-238.98111 152:-296.81863 153:-232.50842 154:169.40108 155:200.07655 156:74.602539 157:169.40091 158:-86.503571 159:74.602539 160:169.40657 161:-373.08341 162:-153.61716 163:217.6465 164:57.671387 165:-215.73157 166:-65.01947 167:-45.110352 168:-237.2915 169:-308.54364 170:-244.12122 171:169.36188 172:198.87856 173:77.83374 174:169.36169 175:-87.701599 176:77.83374 177:169.36737 178:-374.28143 179:-154.00974 180:217.51112 181:57.137451 182:-213.34283 183:-53.63266 184:-40.563232 185:-235.02643 186:-293.28067 187:-244.2041 188:168.7887 189:198.56367 190:79.860107 191:168.78854 192:-88.016449 193:79.860107 194:168.79419 195:-374.59628 196:-153.94565 197:217.68808 198:56.636597 199:-212.97383 200:-59.662872 201:-51.035645 202:-247.5321 203:-296.02649 204:-256.68738 205:168.72401 206:198.25931 207:80.749878 208:168.72385 209:-88.320831 210:80.749878 211:168.72951 212:-374.90064 213:-153.0851 214:218.38544 215:56.282593 216:-210.42563 217:-57.220703 218:-63.538574 219:-249.76608 220:-289.59293 221:-272.8772 222:169.57842 223:197.97205 224:79.65686 225:169.57825 226:-88.608093 227:79.65686 228:169.58391 229:-375.18796 230:-152.94435 231:217.66321 232:59.357056 233:-212.06661 234:-55.728241 235:-77.54541 236:-254.7504 237:-278.47427 238:-296.44006 239:169.41008 240:195.69659 241:85.414185 242:169.40991 243:-90.883545 244:85.414185 245:169.41557 246:-377.46341 247:-148.681 248:220.66208 249:59.093506 250:-201.5267 251:-40.24939 252:-88.172607 253:-252.06082 254:-252.49811 255:-315.64197 256:173.81201 257:194.60641 258:78.788086 259:173.81184 260:-91.973724 261:78.788086 262:173.81751 263:-378.55353 264:-148.85596 265:219.59814 266:62.541504 267:-208.90536 268:-61.247833 269:-124.96545 270:-261.83215 271:-248.26343 272:-377.09875 273:173.5701 274:193.11652 275:82.899658 276:173.56992 277:-93.463623 278:82.899658 279:173.57559 280:-380.04346 281:-148.83217 282:219.61234 283:62.564331 284:-215.73227 285:-61.892365 286:-156.1051 287:-262.77344 288:-216.81213 289:-437.59033 290:173.48863 291:192.71024 292:84.019897 293:173.48846 294:-93.869904 295:84.019897 296:173.49412 297:-380.44977 298:-149.82173 299:218.74291 300:63.245239 301:-212.95679 302:-61.94043 303:-183.56482 304:-245.24486 305:-168.22952 306:-485.60657 307:172.70555 308:193.56761 309:83.661865 310:172.70538 311:-93.012512 312:83.661865 313:172.71104 314:-379.59235 315:-150.14197 316:217.82491 317:65.607544 318:-219.09204 319:-51.97226 320:-200.03931 321:-227.43907 322:-83.088776 323:-511.07593 324:172.71384 325:194.16066 326:82.25708 327:172.71367 328:-92.419464 329:82.25708 330:172.71933 331:-378.9993 332:-152.32486 333:215.6476 334:67.72937 335:-224.64062 336:10.442108 337:-215.20666 338:-203.00104 339:11.107727 340:-524.3551 341:170.8284 342:195.44972 343:83.133057 344:170.82823 345:-91.130432 346:83.133057 347:170.83389 348:-377.71027 349:-154.12462 350:214.75986 351:66.464111 352:-204.23738 353:6.463196 354:-193.7854 355:-191.29871 356:91.908295 357:-483.13074 358:169.30763 359:198.03592 360:80.064941 361:169.30747 362:-88.54422 363:80.064941 364:169.31313 365:-375.12405 366:-159.89185 367:212.58177 368:59.39502 369:-208.97775 370:10.630859 371:-178.72729 372:-162.66888 373:183.5721 374:-414.02393 375:163.80273 376:204.72832 377:74.425537 378:163.80255 379:-81.851807 380:74.425537 381:163.80823 382:-368.43164 383:-162.313 384:212.91737 385:51.062866 386:-203.41626 387:28.813721 388:-204.00476 389:-116.29866 390:251.40826 391:-372.63452 392:160.3085 393:204.97212 394:81.082397 395:160.30832 396:-81.608032 397:81.082397 398:160.314 399:-368.18787 400:-163.13133 401:213.95831 402:43.59668 403:-190.79248 404:58.917755 405:-194.1283 406:-78.22226 407:299.18619 408:-314.10156 409:158.46516 410:205.57086 411:83.187134 412:158.465 413:-81.009277 414:83.187134 415:158.47066 416:-367.58911 417:-162.72783 418:213.8864 419:45.459961 420:-176.75894 421:64.751266 422:-179.05273 423:-45.23177 424:315.10107 425:-251.45056 426:159.30409 427:205.60588 428:81.503174 429:159.30392 430:-80.974274 431:81.503174 432:159.30959 433:-367.55411 434:-163.0905 435:212.61549 436:49.889038 437:-174.30185 438:56.609512 439:-157.20215 440:-22.695564 441:305.52814 442:-194.3374 443:159.83765 444:206.821 445:77.264404 446:159.83746 447:-79.759155 448:77.264404 449:159.84314 450:-366.33899 451:-166.00803 452:210.13765 453:50.762451 454:-169.40024 455:51.337875 456:-143.72131 457:1.499111 458:294.72791 459:-143.12134 460:157.09821 461:209.11995 462:76.696533 463:157.09804 464:-77.460205 465:76.696533 466:157.1037 467:-364.04004 468:-163.62572 469:210.91966 470:55.065063 471:-174.13413 472:28.121582 473:-118.10706 474:19.839638 475:253.76692 476:-105.60742 477:159.62274 478:206.41124 479:78.788452 480:159.62259 481:-80.168915 482:78.788452 483:159.62823 484:-366.74875 485:-162.72324 486:211.18181 487:56.72644 488:-186.53322 489:10.210236 490:-98.554443 491:34.224182 492:213.27861 493:-88.414062 494:160.73764 495:206.13286 496:77.247437 497:160.73747 498:-80.447296 499:77.247437 500:160.74313 501:-367.02713 502:-160.40033 503:214.24081 504:51.598999 505:-227.97061 506:-33.242554 507:-76.374634 508:5.033043 509:153.66368 510:-106.35388 511:163.12158 512:206.72421 513:70.3302 514:163.1214 515:-79.855927 516:70.3302 517:163.12707 518:-366.43573 519:-159.28798 520:213.79343 521:56.678711 522:-243.85591 523:-56.253479 524:-61.56189 525:-4.474583 526:112.26187 527:-128.34131 528:164.38681 529:205.1622 530:71.959717 531:164.38664 532:-81.417938 533:71.959717 534:164.3923 535:-367.99777 536:-158.09531 537:213.73404 538:60.14624 539:-264.85632 540:-76.896545 541:-41.301025 542:-27.111343 543:56.008194 544:-166.4054 545:165.66077 546:203.8641 547:72.731689 548:165.6606 549:-82.716034 550:72.731689 551:165.66626 552:-369.29584 553:-155.38829 554:216.62793 555:56.740234 556:-251.69386 557:-38.777802 558:-13.348755 559:-26.528111 560:24.30719 561:-183.60754 562:168.20296 563:202.8009 564:69.80127 565:168.20279 566:-83.779236 567:69.80127 568:168.20845 569:-370.35907 570:-154.06043 571:217.61296 572:56.609009 573:-290.59079 574:-48.111847 575:-16.212158 576:-87.555107 577:-20.796417 578:-220.03748 579:169.48132 580:202.03099 581:68.950562 582:169.48114 583:-84.549164 584:68.950562 585:169.48682 586:-371.129 587:-153.49429 588:218.10931 589:56.239624 590:-247.66242 591:-44.602478 592:-23.508667 593:-97.291512 594:-60.331879 595:-272.11975 596:169.98306 597:201.57886 598:69.04187 599:169.98291 600:-85.001282 601:69.04187 602:169.98856 603:-371.58112 604:-153.74367 605:217.49883 606:57.89209 607:-252.60815 608:-55.973907 609:-57.455688 610:-122.69984 611:-101.11346 612:-317.23926 613:169.65245 614:200.71007 615:72.303955 616:169.65228 617:-85.870087 618:72.303955 619:169.65794 620:-372.44992 621:-154.16545 622:217.36951 623:57.25769 624:-263.90713 625:-65.800751 626:-84.166016 627:-163.22971 628:-126.7861 629:-354.42029 630:169.13625 631:200.63776 632:73.704468 633:169.13608 634:-85.942383 635:73.704468 636:169.14174 637:-372.52222 638:-155.22522 639:217.85416 640:52.323608 641:-273.94714 642:-59.44397 643:-121.54822 644:-193.40228 645:-134.35818 646:-396.1991 647:167.54947 648:200.83756 649:76.710449 650:167.54929 651:-85.742584 652:76.710449 653:167.55496 654:-372.32239 655:-155.03598 656:218.26634 657:51.158691 658:-281.97821 659:-46.111755 660:-155.79773 661:-218.11803 662:-136.3725 663:-438.38818 664:167.14706 665:199.35082 666:81.330811 667:167.1469 668:-87.229309 669:81.330811 670:167.15256 671:-373.80914 672:-158.01462 673:216.45503 674:49.698608 675:-286.51257 676:-44.161621 677:-188.87903 678:-244.58993 679:-142.47015 680:-486.37134 681:163.48767 682:199.78536 683:87.458374 684:163.48749 685:-86.7948 686:87.458374 687:163.49316 688:-373.37463 689:-158.85532 690:216.00473 691:49.005005 692:-283.53302 693:-23.687439 694:-203.39026 695:-269.03055 696:-120.44659 697:-514.10596 698:162.80609 699:200.91348 700:86.153931 701:162.80591 702:-85.666656 703:86.153931 704:162.81158 705:-372.24649 706:-159.66486 707:215.96979 708:46.462036 709:-284.9556 710:-12.884583 711:-224.73047 712:-284.11981 713:-77.112244 714:-544.0332 715:161.60641 716:201.48889 717:87.063965 718:161.60625 719:-85.091248 720:87.063965 721:161.61191 722:-371.67111 723:-162.01544 724:214.44989 725:45.341797 726:-289.27707 727:-1.734955 728:-248.99072 729:-282.35059 730:-23.496887 731:-572.35193 732:158.79733 733:202.37238 734:90.124634 735:158.79715 736:-84.207764 737:90.124634 738:158.80283 739:-370.78757 740:-163.05756 741:214.29356 742:42.235718 743:-278.7225 744:-5.319397 745:-211.44665 746:-271.90692 747:8.397247 748:-522.78284 749:157.90771 750:204.62523 751:86.52771 752:157.90755 753:-81.954895 754:86.52771 755:157.91321 756:-368.53473 757:-169.21936 758:209.94765 759:39.676514 760:-276.78699 761:23.997986 762:-220.89307 763:-258.30359 764:65.111511 765:-525.13794 766:151.00458 767:208.35371 768:89.85437 769:151.00441 770:-78.22644 771:89.85437 772:151.01007 773:-364.80627 774:-169.00845 775:209.95366 776:40.618286 777:-275.88492 778:81.122162 779:-253.08984 780:-236.90054 781:164.63733 782:-540.56946 783:151.55631 784:208.47496 785:88.674561 786:151.55615 787:-78.105164 788:88.674561 789:151.5618 790:-364.685 791:-169.08655 792:209.43593 793:42.907349 794:-260.26349 795:90.4617 796:-251.33789 797:-213.09616 798:229.85272 799:-504.57251 800:151.93893 801:208.56691 802:87.801758 803:151.93875 804:-78.013245 805:87.801758 806:151.94443 807:-364.59308 808:-167.02414 809:210.61415 810:45.129395 811:-250.09532 812:89.208679 813:-248.16931 814:-179.27092 815:271.83341 816:-460.76916 817:155.01837 818:208.6949 819:81.901001 820:155.0182 821:-77.885254 822:81.901001 823:155.02387 824:-364.46509 825:-166.0282 826:211.37941 827:45.250488 828:-237.35426 829:102.9232 830:-254.28711 831:-140.71127 832:322.88061 833:-411.29224 834:156.3353 835:208.7845 836:79.13623 837:156.33513 838:-77.795654 839:79.13623 840:156.34079 841:-364.37549 842:-166.69653 843:210.22421 844:48.088867 845:-222.15465 846:112.96976 847:-235.52966 848:-105.62526 849:346.02924 850:-355.40466 851:155.9612 852:209.06265 853:79.141846 854:155.96103 855:-77.517487 856:79.141846 857:155.96669 858:-364.09732 859:-166.99136 860:209.41121 861:50.549072 862:-208.8575 863:111.38809 864:-219.86902 865:-86.445396 866:356.62518 867:-297.31848 868:155.68013 869:208.37196 870:81.481445 871:155.67996 872:-78.208191 873:81.481445 874:155.68562 875:-364.78803 876:-166.94388 877:211.11952 878:43.011475 879:-198.31808 880:101.04906 881:-199.34155 882:-53.251286 883:345.86981 884:-240.48999 885:154.94641 886:209.05672 887:81.108643 888:154.94624 889:-77.523438 890:81.108643 891:154.9519 892:-364.10327 893:-166.68298 894:210.70087 895:46.000122 896:-183.07248 897:88.564056 898:-176.99963 899:-23.50901 900:328.81152 901:-183.81262 902:155.73663 903:209.13452 904:79.391113 905:155.73645 906:-77.445618 907:79.391113 908:155.74213 909:-364.02542 910:-167.36041 911:209.64037 912:48.324219 913:-174.02754 914:68.276047 915:-158.65393 916:0.621582 917:303.26221 918:-145.00562 919:155.62019 920:210.56322 921:75.758301 922:155.62003 923:-76.016937 924:75.758301 925:155.62569 926:-362.59677 927:-166.8128 928:209.11241 929:52.339233 930:-174.17252 931:43.22908 932:-142.82336 933:17.867146 934:268.25977 935:-110.3186 936:156.58716 937:210.36906 938:74.291748 939:156.58699 940:-76.21106 941:74.291748 942:156.59265 943:-362.79089 944:-165.96333 945:209.21687 946:54.580688 947:-190.65399 948:22.384979 949:-111.23584 950:20.519917 951:229.98775 952:-74.289307 953:157.54225 954:209.39229 955:75.032837 956:157.54208 957:-77.187836 958:75.032837 959:157.54774 960:-363.76767 961:-165.25128 962:209.94694 963:53.881348 964:-248.02243 965:-36.473602 966:-84.805908 967:-27.104134 968:164.02617 969:-76.305054 970:158.69244 971:211.8828 972:64.894531 973:158.69229 974:-74.697357 975:64.894531 976:158.69794 977:-361.27719 978:-164.41356 979:209.94449 980:56.437744 981:-257.4693 982:-58.236633 983:-60.521362 984:-39.752346 985:145.57445 986:-74.247681 987:159.67302 988:211.92068 989:62.353027 990:159.67285 991:-74.659454 992:62.353027 993:159.67851 994:-361.23932 995:-165.144 996:208.76315 997:58.651245 998:-261.75842 999:-63.721954 1000:-42.760254 1001:-41.11483 1002:133.91408 1003:-79.916382 1004:158.96173 1005:212.35226 1006:62.707886 1007:158.96158 1008:-74.227875 1009:62.707886 1010:158.96722 1011:-360.80768 1012:-163.64809 1013:209.61903 1014:59.780518 1015:-265.18573 1016:-71.259094 1017:-23.778687 1018:-49.319386 1019:124.87985 1020:-87.346802 1021:160.49367 1022:211.69636 1023:61 1024:160.4935 1025:-74.883789 1026:61 1027:160.49916 1028:-361.46362 1029:-161.89792 1030:211.48363 1031:57.927856 1032:-265.99158 1033:-70.837402 1034:-15.201172 1035:-54.026421 1036:116.76718 1037:-109.79028 1038:162.22989 1039:212.17509 1040:54.360718 1041:162.22974 1042:-74.405029 1043:54.360718 1044:162.23538 1045:-360.98486 1046:-159.99519 1047:212.73904 1048:58.629028 1049:-251.60574 1050:-42.894806 1051:-16.250244 1052:-36.615002 1053:120.90677 1054:-125.01611 1055:164.06537 1056:211.56534 1057:51.150757 1058:164.0652 1059:-75.014801 1060:51.150757 1061:164.07086 1062:-361.5946 1063:-158.37955 1064:212.8019 1065:62.641113 1066:-245.47812 1067:-50.24707 1068:-20.412109 1069:-43.311821 1070:82.133392 1071:-168.55139 1072:165.66711 1073:209.28639 1074:55.192871 1075:165.66693 1076:-77.293762 1077:55.192871 1078:165.67261 1079:-363.8736 1080:55.192871 
